#include "microinfer.h"

#define CONV2D_KERNEL_0 {17, -28, -68, 39, -48, 74, 57, -30, -6, 20, 53, -25, 39, -65, 14, -58, -16, -25, -52, 47, 38, 42, -18, -47, -60, 0, -6, -66, 32, 11, 31, -76, -51, 30, 2, 66, 32, 50, 54, 4, -27, 1, -48, 44, -12, 56, -60, 3, 17, -16, 33, -36, 87, 18, -9, 1, 80, 26, 64, -5, 12, -34, 41, -15, 3, 86, -76, 46, 62, 33, -12, 35, -74, -35, 3, 23, -17, 46, -50, -82, -56, 8, -49, -16, 47, 24, 54, 54, 45, -57, -33, 86, 42, 48, -55, -34, -75, -55, -55, -34, 42, 60, 19, -51, 30, -13, 76, 67, -28, 3, -50, -79, -65, -32, 72, 16, 24, 4, -51, -47, 25, 64, 68, 27, 36, -23, -39, 2, -28, 47, -6, -47, -56, -59, 49, 61, 9, -26, -28, -21, 44, 22, -11, -20, 57, 21, 74, -61, -40, -11, -11, 20, -11, 68, -16, -10, -30, 14, -32, 51, -11, -20, 35, 15, -41, 12, -83, -48, -9, -23, 21, 36, -47, 78, 28, -65, 83, 62, -68, 18, -60, -90, -87, 56, 24, -60, 61, 49, -25, 16, -12, 74, 14, 23, -2, 5, -38, -74, 19, -71, 4, -27, 67, 23, -15, -21, 20, 65, -16, 75, -2, -45, 31, -34, 30, 26, -2, -17, -57, 44, -44, 28, -70, 38, 37, 28, -58, -38, 74, -3, -23, 30, 51, 70, 27, -29, 57, -39, -9, 34, -47, 10, 25, 30, -60, -33, -42, -36, -60, 10, -20, 34, 20, -16, -25, -49, -26, 11, -4, -6, -14, -66, -13, -34, 56, -55, 33, -50, -81, -6, 34, 11, -21, 52, 59, 17, 20, -20, -52, 76, 19, 45, 32, 11, 33, -11, 22, 30, -36, 22, 15, -16, 23, 40, 22, 23, -61, -8, 5, -36, 72, -24, 16, -58, -27, -17, -22, -2, -39, -29, 39, -13, 36, 40, -4, -26, -21, 66, 23, 55, -13, -75, 34, -63, 42, 19, -46, -27, 31, -10, 11, -28, -28, 52, 52, 16, 77, 33, 82, 13, -41, 42, -73, -80, -55, -24, 13, -23, -37, -9, -9, 65, 20, -22, -47, 11, 43, -25, 53, -3, -7, 46, -3, -17, -58, -28, -31, -72, 16, 52, -22, -7, -18, 64, 33, 59, 30, -36, -20, 43, 29, 7, -20, 43, -42, 5, -63, -5, 36, -18, 57, -2, -31, 51, 33, 57, -54, -50, -32, -22, -65, -36, -31, 31, 22, -30, 54, 56, 20, -30, 62, -86, -77, -66, -11, -61, 4, 19, 58, 50, 14, 42, 12, -70, 4, -43, -8, -67, 41, 28, -4, 1, 33, 54, 1, -13, 1, -39, 31, 45, -52, 10, -22, 6, -15, 49, 58, -46, 17, -46, 70, -4, 0, -27, 36, -27, 68, -9, 47, -51, 23, -17, 39, -44, -48, 2, -23, 41, 18, -10, -9, 15, -40, 22, 62, 36, 62, 2, -54, 76, 20, -60, -38, -53, 40, 58, 2, 8, 44, 22, -28, 77, -47, 41, 87, 0, -35, 41, 31, -46, -41, -24, -62, 15, 38, 10, 60, -51, 43, -1, -45, -34, 19, -12, -47, 15, 13, -53, 52, -54, -10, 50, 27, 2, 31, -27, -25, -38, -2, 61, 29, -59, 24, -3, 6, 44, -1, -31, 8, 41, -54, -47, 42, -10, 23, 21, 7, -7, -27, 35, -22, 22, 20, -21, 12, -63, -44, -45, -23, -9, -20, -30, 60, 52, 42, -7, 74, 50, 41, -35, -51, 27, -26, -85, -73, -67, -13, -63, 5, -80, 7, 68, -20, 22, 9, 8, 39, 58, 46, 22, 17, -79, 64, -28, -38, -40, 65, -26, 23, 39, 43, 51, 75, -55, -59, 10, 10, -57, 3, 33, -5, -1, 30, -30, 25, 21, -45, -15, -36, -20, -58, -1, -66, -60, 65, -42, 32, -33, 23, -27, 42, -36, -49, -64, -27, -16, -4, -20, -8, 54, 35, -25, -28, -23, 78, -74, -51, 13, -55, -32, 32, 7, 34, -33, 65, 53, 9, 43, 42, 27, -24, 34, -39, 69, 21, 39, -19, 57, 15, 21, 32, 25, 25, -28, -23, 21, 0, -30, 1, 5, 50, -10, 31, -3, -38, -25, -13, 64, 64, -19, 51, 51, -68, -29, 64, 13, -33, 40, 45, 27, -38, -72, 27, 60, -44, 63, 54, -5, 93, 3, 37, -35, 18, -44, -44, -25, 3, 22, 36, -25, 89, 56, -22, 44, -53, 38, 54, -48, -42, -19, -16, -77, -5, 9, 5, 29, 70, 49, -10, 10, -59, -66, 29, -62, 46, -31, -27, -42, -54, -23, 23, -49, -43, -48, -2, -54, -51, -63, 5, 64, -10, -19, 17, 38, -8, 6, -38, 7, -23, -54, -57, 66, -61, 58, -50, 33, -32, 24, -33, -18, -47, -16, -40, 42, -14, -36, 58, 22, -53, -56, -46, 66, 1, -60, 53, 41, 64, 62, 15, 33, 59, 14, -30, 43, 24, 51, 10, -40, -1, -35, 56, -39, 68, 26, 32, 67, -50, 18, 74, -47, -77, -2, -7, -41, -50, -59, 54, 63, -5, -42, 37, -68, 32, 42, -66, -48, 58, 46, -6, 7, -74, 29, -6, -33, -9, 11, 10, 59, 54, -29, -63, 20, 79, 54, -66, 20, 44, 27, -16, -2, 9, 47, 23, -53, -16, -39, -46, 94, 22, -76, 32, -56, 24, -31, 8, 10, 1, 44, -32, 52, 45, -20, -13, 9, 7, -27, 23, -26, 55, -47, 36, 12, -65, 14, -28, -63, 46, 4, -46, 21}

#define CONV2D_KERNEL_0_SHIFT (9)

#define CONV2D_BIAS_0 {59, -67, 64, -40, 75, -69, 31, -43, -83, 41, 22, 60}

#define CONV2D_BIAS_0_SHIFT (11)


#define CONV2D_1_KERNEL_0 {-11, 18, -27, -58, 8, -54, -56, -13, -62, -4, -38, -49, -6, 19, -52, -25, 54, 43, -66, 68, -17, -89, -60, -12, 32, 61, -9, 5, 21, 3, 9, -59, -53, 72, 77, 50, -80, 82, -29, 74, 67, 77, -36, -14, 43, -38, 87, -69, -72, 5, -100, -78, 56, -68, 31, -84, -27, -41, 8, 27, 29, 10, -114, 6, 14, -46, -67, 13, -62, 72, 70, -61, 78, -10, 73, 32, 55, 47, -20, -30, 16, -32, 59, 20, -65, -30, -56, -61, 13, 78, -50, -57, -8, 80, -13, 35, 32, -44, 39, -51, 90, -2, 8, -14, -65, -70, -54, -34, 73, 41, 29, 42, 14, -33, -18, 62, 18, 69, -78, -80, -24, -37, -70, -6, 52, -45, 44, -10, 60, -74, -18, -9, -81, -59, 21, 40, 60, 52, -26, 73, 89, -121, 50, -66, 34, -8, -7, 16, -4, 68, -43, 27, 58, -56, 57, 9, 61, -16, 5, 1, -44, 48, -69, -66, -55, -63, -30, -76, -15, -19, 110, 85, 101, -17, 9, -30, 95, 28, -30, 34, 41, -85, 37, 30, 20, 20, 0, 34, 67, -77, -6, -29, 54, -73, 64, -44, -23, -85, 62, 48, 72, 59, 51, -56, 33, 22, -34, 19, -54, -124, 80, 58, 81, 61, -19, 56, -32, -49, 50, -58, -52, -33, -36, -3, 18, -62, -97, -46, -64, 31, -43, -40, -10, 17, -62, 30, 19, 19, -21, 34, -11, 5, 58, -97, -2, 2, -76, -14, 60, -45, 37, -23, 85, 47, 31, -53, 47, 7, -75, 51, 25, -31, 59, -61, 13, 98, -72, -54, 75, 104, 8, -26, 68, -56, -43, -15, 41, 36, 72, -56, -67, 82, 73, 22, 96, -47, 46, -65, 66, 39, 58, -42, -58, 66, 13, 96, 55, -9, 75, 11, 14, -17, -68, -38, 68, -29, -94, 26, 64, 32, -27, -45, -49, 25, 33, -49, 28, -14, 39, -77, 87, -48, 52, -5, -2, 60, 54, 46, 9, -76, -1, -24, -28, -32, -13, -47, 63, 54, -97, 50, -24, -35, 76, -83, 8, 42, -6, 39, 0, -35, -38, 54, -81, 73, 41, -69, -7, -54, 83, 64, -39, -51, -4, -70, 49, -13, 12, -34, 57, 36, 3, -4, 41, -97, -56, -97, -70, 33, 56, -62, -64, -38, -37, 41, 15, 29, 55, -40, 36, 40, -72, 63, -79, 69, -55, 63, 20, -29, 51, -65, -53, -31, 31, -49, 34, 20, 52, -38, -81, -79, -46, -122, 1, -27, -18, 21, -83, 18, -56, -5, -56, 57, 60, -90, 22, -46, -55, 6, -19, -29, 52, 63, 22, -24, 76, 33, -50, 79, 51, -57, 35, 24, 10, 45, 5, -80, -53, -51, 10, -9, -54, 84, -59, -29, 36, -79, 27, -77, -40, -63, -5, -23, 51, 48, -43, -5, 3, -38, -36, -11, 31, -81, 69, -22, -2, 72, -33, -48, 66, 48, -66, -14, -69, -80, -103, -56, 53, 19, 74, 60, -48, -88, 9, -73, -90, -77, -23, -111, -14, -22, -89, -40, -2, 87, 68, 90, 69, -35, -48, 30, -50, 96, -28, -72, 35, 61, -43, -73, 64, -65, 56, 46, -21, -54, -97, 67, 70, -77, 37, -33, -120, 9, -36, 3, -37, -37, 28, -46, -13, -34, 92, 52, 47, -49, -51, 86, 5, 79, 92, 7, 47, -17, 53, -49, -69, 52, 35, 61, -59, 42, 69, -75, -56, 8, 53, -22, -52, 36, 27, 14, 71, 71, 92, 42, 96, 7, 40, -5, -27, -43, 10, -41, 83, -42, -28, -31, 44, 30, 89, 69, -101, 58, -70, -43, -78, -42, 23, 1, 117, 85, -29, 91, 55, 36, -57, 40, 54, -34, -5, -2, -9, -80, 105, -46, 66, 70, 20, 45, 42, 57, 10, -5, 82, 53, 47, -80, 23, 55, 33, -3, 15, 20, -99, -78, -58, 6, -87, -26, -13, 10, 76, -79, 75, -62, -61, -48, 96, 8, 4, 55, 68, 35, -2, -2, 37, 29, 42, -12, 55, 69, -54, -116, -81, 63, 53, -49, -25, 49, -33, -79, -78, -28, -14, 40, -56, 32, -19, 34, 46, 60, 26, -49, 11, -29, 16, 25, -73, 82, 83, 57, 4, 56, 30, -91, -37, -39, 17, -25, 2, -4, -27, 19, -57, -57, 80, -75, 56, 55, 23, -57, -46, -28, 62, -97, 39, 53, 87, 46, -29, -68, -72, 6, 2, -66, -57, -6, -60, 64, -47, -78, -41, -66, -43, -40, -89, -49, -6, -4, 11, -104, -7, 48, 38, -60, 45, -88, -65, 72, -63, 2, -39, -55, 1, 59, 9, 1, 18, -61, 11, -71, 82, -82, -23, 69, 16, -48, 79, -70, 71, 18, 10, -93, -28, 53, 36, 51, -2, -41, 39, -28, -35, -78, -69, -15, 24, 28, 29, -59, 69, -12, 59, -30, 32, 8, 14, 61, -42, 49, -60, 92, 91, -42, -87, -76, -30, -54, -26, 10, 21, -1, 59, 113, 68, -36, -72, 71, -27, 2, 35, 39, -43, 52, 46, -67, 5, 19, 79, 53, 45, 49, -46, -29, 44, -77, -30, -49, 36, -78, 86, -65, 48, 20, -36, 51, -65, -17, 16, 91, -37, -70, -23, -6, 26, 62, 12, 15, 18, -40, 0, -25, -79, 81, -57, 7, -22, 81, -10, -6, 64, -32, 22, 14, 53, 29, -2, 46, -76, -28, -28, 13, -10, -36, -90, -95, 25, -3, -56, 57, 72, -31, -27, 51, 34, -1, 54, 23, 57, 40, -45, -26, 47, -52, 73, 19, 0, 92, 22, -52, 85, 51, 56, 18, 6, -76, -26, -75, 30, 104, -26, -37, 8, -77, 48, -75, -52, 60, 56, -62, -34, 67, 14, 68, 97, 33, -19, -42, -57, -68, 10, 23, -12, 80, 42, -59, 61, -91, -1, -59, -50, -12, 21, 52, -80, -6, -27, -3, 58, -27, 39, -36, -82, 2, 21, 41, 44, -98, -87, -28, 60, -51, -21, 7, -28, -33, 3, -12, -68, -66, -109, -45, 5, 8, 58, -36, -71, -21, 57, 7, 21, 45, 58, -64, 34, 57, 21, 94, 58, -10, 12, 47, 0, -29, -85, -101, -115, 95, 58, -12, -75, -60, 9, -18, -67, 21, -28, -40, 73, -18, -21, 69, 30, 46, 38, 35, -49, -97, 3, -28, -7, 57, 64, 40, 73, -93, 8, 76, 47, 50, 9, -63, -22, -6, -11, 9, -19, 31, 43, 49, -75, -14, 61, -5, -45, -39, -10, -62, -42, 24, 19, 50, -8, 52, 21, -58, 52, -95, 78, 6, 17, -2, 19, 60, 25, 25, 85, -68, -60, -98, -26, -60, 13, 78, 71, -2, 3, -36, 61, -43, -98, 7, 11, 84, -40, -10, -4, 20, -31, -5, -43, 7, -39, -69, -108, 13, -65, 69, -50, 3, 74, -3, -16, -1, -56, 44, -50, 17, 13, 81, 3, 34, 44, -71, -67, -15, 63, -51, 22, -49, -15, 22, 66, 95, 41, -6, -76, 82, 58, 24, 21, 4, 82, -17, 62, 12, 64, 44, -22, 43, -56, -53, 59, 60, -74, 80, -50, 62, -26, 35, -4, -75, 37, -60, -8, -32, -68, 53, -103, -50, -106, -105, -51, 31, -38, -5, -8, -56, -77, -58, -29, 113, -68, -53, -30, -60, 37, 54, -26, 62, 80, 50, 66, -32, 88, -8, 37, 2, -105, 57, 76, 0, -29, 63, 71, -101, 90, 64, 53, 44, -60, -31, 90, -55, -66, 34, 15, -74, -74, -49, -65, -88, -110, -53, -42, -31, 29, -25, -3, -43, -49, -41, -19, 36, 60, 24, 13, -24, -67, 39, -46, -67, 43, -15, -20, 62, 34, -65, 46, 2, -71, 24, -25, 16, 40, -23, -45, -33, -77, -54, -50, 39, -61, -21, -49, 58, -58, -46, 72, 11, 52, -22, -7, 23, 42, 60, 88, 29, -5, 29, 36, -42, -19, -1, -65, 38, -67, 22, -57, -61, 18, -35, 26, -16, -17, -27, -56, 53}

#define CONV2D_1_KERNEL_0_SHIFT (9)

#define CONV2D_1_BIAS_0 {-37, -81, -10, -37, -39, 5, -42, 34, 11, -7, -75, 74}

#define CONV2D_1_BIAS_0_SHIFT (12)


#define CONV2D_2_KERNEL_0 {-16, 1, -79, -82, -20, -67, -38, 10, -45, 82, 31, -8, -25, 68, 44, -18, 6, 50, -37, 4, 0, -24, 14, -37, -20, 13, 90, 6, -68, -21, -66, -35, -45, 43, 22, 8, -4, -61, -30, -68, -9, -50, 16, -47, 10, -6, 26, -16, 38, -60, -33, -47, 30, 37, 58, 1, -19, -53, -35, 16, 73, 13, 58, 51, -17, -55, -14, 40, 10, -55, -38, 48, -34, -5, 48, -18, -108, -50, 30, -61, -70, 0, -50, 39, -75, -35, -27, -54, 4, -32, -27, 51, -2, -33, -6, -11, -68, 74, 61, 4, -66, -54, -1, 17, 54, -50, 84, -49, -65, -27, -50, -74, 19, 63, -43, -33, -3, -1, 47, -43, -65, -20, 79, -19, -29, -34, 4, -68, -62, -31, -9, -81, -46, -37, -15, 25, 11, -54, 20, -45, -23, 32, 22, -32, 33, -28, -5, 18, -54, -34, 57, 7, -74, 2, 43, 29, -38, -42, 59, -13, -75, -31, -88, -2, 12, -25, -40, -59, 19, 71, -30, -52, 56, 39, -85, -50, 69, -9, -35, 26, -2, 42, -36, 48, -5, 40, 37, -4, 46, -43, -3, -47, -18, -53, 65, -39, -69, 75, -68, 65, -48, -28, 36, -58, 43, 39, 77, 37, -4, -54, 59, 16, 45, -30, -52, 32, -7, 62, 45, -66, -84, 60, -62, -26, -7, 38, 4, -24, -18, 43, 31, 54, 36, 22, 12, 70, 46, -55, 30, -36, -67, 94, -37, -16, -4, 61, -58, -15, 16, 54, 6, 36, -30, 54, -26, 17, -53, -19, -22, -25, 10, -24, -40, -25, -36, 21, 31, 47, -9, -75, 36, -49, 28, 60, 3, -48, -54, 75, 26, 25, -18, 31, 22, 55, 40, 54, -20, -69, -62, -31, 72, -69, -105, 65, 29, -55, 53, -33, -25, 54, 54, 34, -9, -67, 31, -50, -4, 22, 31, -38, 22, -22, -5, -37, -32, -56, -58, -6, 61, -98, -15, -25, 18, -19, -65, -7, 16, -8, -1, -37, 29, 41, 59, 29, -38, 53, 17, -17, -32, -65, -32, 16, -43, 19, -53, -36, 28, -60, -53, 12, 10, 33, 36, -27, -25, -60, 1, 20, -1, -68, 41, 63, -7, -61, -112, -1, 44, -6, -22, -17, -1, 59, -8, -37, 65, -22, -10, -2, 28, 28, -45, -28, -44, 9, 36, -59, -32, 46, 13, -10, 8, -44, 86, -27, -46, -73, 76, 45, -18, -3, 4, 55, -60, -42, -7, 71, -49, 70, -36, -43, 22, -23, -33, 23, -43, -60, 54, -23, -44, -30, -38, 35, 19, 20, -59, -50, -28, -65, 19, 2, -65, 5, -35, 66, -33, 41, 11, 58, -63, -24, 43, -63, 57, 44, -45, -43, -24, -48, -83, 4, -46, 50, -40, 37, -31, -25, 33, 64, 6, -26, -22, 68, 17, 1, 27, 14, -17, 41, 12, 38, -46, 53, -54, -5, 15, 5, 24, 12, 42, -34, 53, 66, -62, 81, -51, -12, -32, -19, 49, -47, 10, -64, -28, 9, 61, 48, -40, -33, -26, -53, 6, -6, 13, 3, -68, -17, -83, 17, -59, -18, -8, -32, 16, 20, -37, 48, 66, 60, 16, 84, -23, -18, 37, 33, -43, 8, 18, 6, -52, 10, -86, -20, -22, 22, 21, 5, -49, -21, 15, -4, 92, 38, 53, -37, -4, 16, 24, -60, 27, -48, -1, -43, -29, 118, 47, -20, 1, 78, 46, 30, 1, -35, 56, 48, 51, 38, 16, 6, -66, -27, -50, -36, -10, -57, 63, 66, -27, 38, -33, 50, -57, -29, -23, -21, -42, 16, 4, -42, -9, 4, 21, 90, 13, -15, -55, 74, -33, 25, -13, 90, -14, 28, -6, -39, -22, -38, 0, -27, -28, -37, -28, -38, 18, 74, -5, -7, 69, 57, -34, 51, -46, 66, 61, -77, 38, 30, -4, 19, -78, 46, -8, -59, 33, -4, -19, 55, 2, 60, -34, 40, 45, -39, -51, 28, -25, 16, -26, 12, -18, 44, -50, 17, 0, 6, -27, 33, 24, 31, 69, 52, 102, 26, -37, -13, 47, -16, 44, -10, -64, -28, -35, -19, 13, 17, -39, 41, 47, 56, 68, 65, -56, 62, 76, -43, 6, -57, -20, 24, -23, -7, -73, -53, 52, -38, -72, 14, 53, -58, 45, -35, 41, 23, 32, 52, 25, -6, -31, -47, -51, 17, 58, -57, 2, -39, -19, -41, -3, -33, -46, 51, -47, -48, 22, -99, 57, -13, 30, -45, 18, 13, -23, 32, 10, 31, 38, 41, -35, 33, 60, -17, 61, 20, -47, -45, -54, 30, 12, -39, -23, 3, -16, 26, 2, 17, -48, 66, -91, -22, -68, 3, 56, 35, -34, -18, 21, -17, 20, 44, -9, 8, -67, -34, -7, -33, -36, -36, -5, -69, 45, -7, -44, -40, -17, -37, 28, -12, -32, 1, 16, 57, -49, -32, 43, -16, 32, 78, -79, 64, 45, -63, 43, -36, 37, -44, -2, 62, 5, 36, 33, -39, 40, 61, 46, 11, 51, 28, 64, -8, -34, 59, 1, -8, 1, 9, 1, -91, 52, -3, 41, 0, 25, -31, 27, -4, 36, -40, -3, -17, 61, 64, 0, 20, -35, -38, -19, 9, -23, 23, -78, -29, -45, 17, 22, -18, -65, -2, 68, 15, -29, 22, 30, 70, 47, -31, -70, 4, -30, 35, -30, 33, -4, 20, 22, -34, 47, 55, -46, 26, 61, -59, -53, 0, 28, -53, -74, 37, 42, -32, -61, -1, 13, 3, 63, 33, -54, -49, 37, -48, -5, -11, -10, -71, -55, -42, 39, -62, 28, 23, -28, -52, -20, -54, -24, -100, 15, 3, 56, -22, -75, -47, -25, -55, -53, 9, -34, 64, -12, -36, -12, 38, -38, -5, 52, 5, -17, -17, 29, 69, 7, -22, -19, 53, -24, 35, -10, -2, 80, 23, 22, 34, 45, 57, -3, -36, -11, 68, 32, -54, 35, -55, 26, 72, 28, -30, -16, -41, -68, -41, 54, 62, 75, 59, -27, 1, 56, 25, 41, -17, 2, -58, -21, -50, 0, -53, -63, -19, 61, -67, 23, -64, 50, 19, 29, -58, -86, 10, -52, -17, 16, -66, 10, 59, 83, 68, -29, 10, 83, -79, -54, -41, -31, 57, -32, 43, -22, -44, -30, -30, -76, -3, -36, -61, -24, 54, 7, -23, -1, 9, -66, 3, -45, 38, 54, -3, -10, -56, -23, 54, 40, -55, -51, 36, 10, 2, -58, -10, -7, 68, 25, -61, -9, 14, 24, -45, 44, 50, -20, 20, 75, -1, -15, 42, 20, 45, -59, 50, 23, -23, -45, -51, 8, 55, 75, -30, 54, -13, 32, 10, -12, 41, 16, -71, -21, -4, 22, 18, -50, -30, 8, 64, 77, 36, -39, -48, -82, -7, 57, -52, -39, 66, 18, 72, -34, 17, 4, -56, -70, -1, -33, 60, -51, -55, -61, 13, -43, 42, -13, -24, 3, 42, -7, 64, -58, -55, -81, -10, 15, -2, -51, -67, 19, 40, 51, -13, -27, -81, -3, -83, -39, -16, 44, 26, -34, 33, -43, 5, -15, -44, 50, -69, -37, -40, -30, -26, -30, 15, -34, -26, 16, 20, -24, 31, -59, 73, 1, -24, 19, -3, -7, -69, -79, -68, -34, -69, -44, 47, -46, -8, -104, -36, -7, 44, 33, 47, 78, -71, 43, -13, 12, 27, 24, 47, 35, -17, 4, 54, -81, -22, -64, -55, -38, 10, 48, -36, -19, 62, -52, 27, -33, 27, -37, -53, 31, 24, -47, -63, 3, -21, 51, 43, 54, -65, 22, -15, 27, -11, -57, 35, 8, 60, 20, 28, -3, -14, 46, 91, 7, 53, 30, 33, -83, -74, 66, -32, -5, 20, 22, 30, -55, 0, 1, -64, 47, 66, 8, 46, -31, 6, 9, 49, 57, 19, 52, 46, 53, 52, -20, 38, 27, -27, 34, 57, 1, 10, 65, 26, -83, 35, 57, 13, 30, 16, 6, 31, -29, 61, 50, 17, 3, 34, -19, 39, -2, -13, 39, -70, 15, -22, 46, 14, -30, -68, 30, 2, 12, -9, 4, -57, -10, 36, -29, -3, -60, -78, 13, 39, -29, -50, -11, 21, 1, -47, 47, -11, 37, 5, -26, 19, -69, -61, -19, -3, 71, -49, -36, 68, -15, 15, -49, 10, 64, -37, -27, 25, 32, 0, -33, 12, 0, 37, 56, 1, -36, 34, 8, 24, 75, -83, 109, -21, 62, 1, -21, 62, 8, 38, 5, -6, -3, 20, 22, 22, -73, -85, 32, 13, 38, -60, 80, -55, -11, 11, 45, 38, -9, -80, 61, 11, 18, -3, 17, -41, -18, -74, 19, 32, -7, -58, 46, -34, -6, 27, -15, -37, -4, 7, -17, -19, 40, -26, 24, 47, 25, 8, 84, 68, 7, 33, -17, -94, -5, -52, 61, 22, -52, -51, -7, 48, 24, -42, 5, 65, 8, 11, -40, 11, 66, -12, -25, 34, 13, 1, -6, -71, 32, 52, -41, -15, -11, 75, -51, -16, -51, -62, -26, 43, -27, 12, -76, -20, -4, 33, -69, -39, 70, -4, 34, -25, 50, 42, 63, 4, 21, 87, 19, -46, 27, -55, -26, 32, 43, 5, 5, 79, 4, 52, -12, 45, 16, -56, 78, 4, -26, -4, 66, 7, 50, 20, -51, 13, -4, 20, 69, 21, 0, -19, -10, 61, -37, 18, -35, 83, 30, 96, -20, -51, 72, 20, 10, 40, 41, 62, 30, 11, -29, 73, 20, -21, -72, -69, -37, 60, 27, 5, 14, 64, -40, -49, -42, 38, -15, -92, -2, 43, -31, -8, -34, 32, 62, -19, 39, -50, -1, 8, 66, -35, -20, 47, -8, -75, 15, 57, -4, 62, -87, 44, -59, 55, -22, 38, -29, 45, 88, -26, 61, -21, 52, 22, -5, 23, -11, -21, -40, -42, -69, -6, 77, -29, 81, -27, -35, 21, -2, 44, -69, -47, 18, -55, -16, 25, 15, -23, -44, -42, 43, 38, 41, -7, 26, -49, 10, 16, 55, -50, -47, 1, -32, 24, -40, -33, 12, 19, -50, 18, 52, 51, 65, 28, 23, -34, -17, -13, 32, 69, -84, 28, -37, 21, 17, -57, -10, 14, -49, -25, -20, -59, 26, 68, 28, -43, 47, 46, -16, 12, 2, 63, -57, -7, 3, -54, -26, 73, -59, -47, 57, 78, -12, 17, 17, 13, 12, -22, -32, -57, -66, -86, -35, 11, -16, 13, 36, 42, 19, -33, -11, -40, -22, 75, 49, 29, 29, -23, -56, -24, 39, -18, 33, 57, 56, 9, -34, 31, 94, 4, -77, -66, -89, 5, -2, -14, 22, -27, -21, -53, -60, 61, -7, 55, 9, 77, -15, 12, 55, 28, -29, -2, -6, 7, -29, -12, 50, 73, 45, 46, 22, -4, -48, -53, 34, -40, 40, 17, -68, 28, 49, 10, 44, 12, -39, 45, 43, -30, -52, 0, 62, 27, -23, -90, -23, -70, 19, 45, -37, -21, 86, -2, -33, 44, 21, -38, -19, -56, 49, 10, -21, 65, 58, 53, -35, -33, 50, -21, 1, 21, 40, 57, 29, 43, 3, -32, 37, 27, 57, -34, -70, -13, 9, 44, 43, 2, -14, 75, 61, -11, 10, -60, 40, -33, 4, 39, 89, 17, 88, 52, -34, 44, -76, -36, -41, -53, -56, 51, 13, -36, -2, 3, 13, -58, -40, 24, 29, 6, 52, 60, 26, -67, 56, -37, -11, -11, -49, -32, 33, -54, -52, 66, 34, -40, -40, 2, 81, 80, 70, -41, 66, 5, -22, 54, 69, -61, -11, 25, -19, -31, 37, -40, -64, -50, 68, 50, 64, -32, -60, 17, -53, 8, 24, 69, 75, 51, -75, -45, 0, 45, -12, -77, -55, -35, -29, -45, -16, -48, -4, -15, -58, 33, 60, 65, -36, 7, 4, -15, 30, -38, 29, -92, 38, -24, 38, 26, 6, 53, 53, -39, -28, -76, -36, 21, -54, 67, -37, 18, 43, 53, 17, -46, -3, 45, -59, -87, -43, -80, -43, 6, 43, -54, 23, 35, 42, -47, -18, -49, -14, 68, 76, 103, -31, 0, 0, 72, 54, 42, -51, -53, -61, 14, -12, -4, 2, 39, -85, -72, -31, 72, 37, 15, 76, 8, 72, 69, 15, -50, -21, 89, -22, 48, 15, -25, 59, 57, -30, 6, 13, -83, 30, -7, 38, -36, -45, -57, 68, 31, 54, 74, -52, -10, -25, 51, 20, -13, -34, 27, 7, 17, -48, -65, 14, 51, 60, 84, -20, -10, -11, -30, 38, 60, 58, -15, 60, -46, 44, 9, 43, -63, -19, -14, -78, -22, 56, 4, -75, -23, -18, -66, -13, -44, 29, 59, 33, -39, -18, 63, 2, 51, -49, -33, -48, -49, 60, -15, -36, 26, -10, 1, -37, -52, 16, -55, 5, -55, -45, 32, -29, 66, -13, 54, -30, 38, -75, -47, -34, 48, -45, -58, 41, -5, -51, 49, -66, 33, -44, 44, -20, 15, -17, -46, 27, -19, -52, 6, 54, -29, -6, -53, 3, -21, -68, -10, -18, 12, -23, -47, 23, 28, 15, -25, -18, -44, 18, 22, 50, -41, 83, 64, 51, 58, -79, -6, 15, 55, -34, 53, -71, 11, -68, -17, -100, 23, 57, 52, -25, 31, -19, 85, -53, -58, -33, 27, 47, -32, -73, -76, -46, 42, 42, 27, -27, 31, -12, 23, 22, 6, -36, 64, -56, -63, -63, -3, -12, -40, -13, -35, 39, 49, -38, -19, -21, 23, 91, -15, -40, -2, -25, -49, -4, -15, -26, -18, -9, 48, 55, -25, 3, 31, -5, 7, 37, -71, 3, 71, 36, 44, 67, 5, -40, 5, 2, -46, 19, -54, 60, 4, 62, 56, -21, 44, -30, -41, 38, -1, 22, 21, 4, 48, -9, 51, -73, -40, 22, -18, 40, -4, -59, 78, 80, 11, -26, 40, 42, -30, 63, 29, -73, -8, 77, -8, -38, 82, -70, -10, 2, 52, -57, -5, -63, -22, 2, 38, -54, -51, 47, -62, -30, -17, -27, -43, 39, 17, 61, -21, -39, 10, -8, -17, -24, -39, 20, 23, 87, 44, 25, 14, -8, -54, -70, 6, -19, 27, -46, -64, -34, 17, -18, 1, -12, 17, 5, -32, -3, 83, -30, -57, 27, -14, 23, 75, 34, -9, -53, 22, -74, -28, 62, 14, -15, 44, 47, 53, 55, -46, -28, -49, 71, -60, 13, -22, 61, 57, -48, -82, 41, -68, 65, 35, -62, 24, 13, -68, 17, -10, 27, -47, 21, 3, 19, 2, -63, 38, -4, 35, -57, -51, 59, -9, 76, 10, 6, 26, 76, 2, -29, -1, 0, 10, -37, -83, 5, 5, -13, 37, -57, -56, -24, 51, -15, -61, 28, 56, -8, -30, 55, -12, -56, -22, -11, 63, 16, -64, -49, 25, 22, -69, 1, -31, -2, 28, -16, 29, 55, -29, -5, -63, -41, -58, 79, -16, -54, -33, -69, -41, -62, -40, -43, 18, -17, -5, 7, -27, 75, -58, -47, -16, -44, 18, -10, -38, 12, 20, -70, -47, 45, -52, -4, 52, -60, -72, -67, 34, -50, 76, 63, -37, 31, -1, -9, -42, -20, 8, 61, 4, 31, -11, 82, 32, 5, 7, 36, -10, 28, -81, -20, -3, 6, 34, -52, -39, 56, 68, -59, -37, 32, -53, 28, -27, -16, -43, 44, 66, -30, 31, 14, -47, 57, -20, 27, -28, -31, 5, -47, 52, 57, 37, -4, 77, -45, -70, 8, 14, -57, 23, 48, 44, 7, 5, -61, 13, -19, -12, -41, -26, -6, 20, -11, -25, 52, 45, 36, 86, 71, -13, 19, 26, 19, -38, 47, 61, -22, -49, -32, 0, 22, -48, -72, -38, -39, 53, -24, -25, -10, 32, -21, -35, 34, 32, 57, 7, 43, -9, 24, 17, 44, 70, -56, 33, -37, -4, 56, -38, 84, 31, -58, -67, -10, 64, 30, 45, 51, 2, 17, 10, -61, 6, 42, 29, -52, -23, 57, -38, 68, -90, -66, -5, 76, -25, -35, -76, 17, 72, 4, 60, 34, -14, -43, -65, 33, -26, 16, 19, 58, 73, -50, 33}

#define CONV2D_2_KERNEL_0_SHIFT (9)

#define CONV2D_2_BIAS_0 {-7, -62, 45, 102, -3, 37, 81, -11, -22, 44, 17, -14}

#define CONV2D_2_BIAS_0_SHIFT (12)


#define CONV2D_3_KERNEL_0 {-2, 23, -59, 40, -15, -57, 9, -12, -40, -39, 39, 51, -24, -52, 49, -36, 16, -31, 23, -64, -13, -56, 26, 11, -18, -49, 24, -78, 63, 40, 35, 6, 49, 6, -42, 48, 29, -40, 36, 61, 22, 22, -63, -31, 5, -4, -11, -1, 34, 41, -25, 46, -25, -41, 37, 12, 44, 59, 52, -82, 17, 22, -9, -22, 53, -41, -69, -35, 43, -70, -7, 17, -77, 17, 4, 59, 1, 17, -31, -25, 46, -44, -21, -54, 54, 32, 41, 42, 46, -30, -11, -44, -25, 11, -23, -55, -11, -50, 9, -50, 43, 17, -25, -89, 13, -18, 45, 11, 28, 23, 40, 55, -27, 45, 43, 11, -4, 44, 24, 7, 28, 9, -1, -18, 8, -40, -41, 34, 8, -59, -65, -69, 32, 3, 11, -2, 1, 77, 12, -72, -27, -37, -13, -21, -28, 1, 35, -7, 20, -48, 28, 10, 43, -18, 65, -45, 63, -5, 32, -11, 10, -54, 17, -50, -32, -44, -18, 47, -53, -3, -36, -14, 40, 36, -13, -56, 48, 9, 15, -40, 34, 24, 48, -3, 21, -4, -55, 9, -49, 12, 58, -25, 45, 36, -36, -47, -20, -8, -34, -9, -29, 20, 38, 16, -20, -18, -35, -37, -53, -35, -43, -23, -31, -69, -40, -3, 29, -24, 50, -43, 68, 70, 19, -20, 8, -20, 9, 17, 31, 48, -32, -32, -2, -51, -49, 21, 40, -15, 3, -10, -43, 48, 51, -9, -31, 23, 22, 10, -79, 14, -19, 48, 60, -24, 28, 6, 67, -33, -6, -86, 12, 1, 82, -6, 7, 59, -40, -16, 41, 28, 83, -13, -44, -18, 56, -9, 28, 36, -43, -58, 14, -12, 10, -44, 37, -33, -15, -20, 31, 39, 44, -6, -49, 36, -43, -37, -65, -18, 71, -91, -6, -16, -22, -22, -2, -11, 44, -26, -10, 62, 79, -68, 55, 35, -46, 2, 35, 66, 35, 39, 69, -31, -23, 32, -45, -9, 3, 6, -59, -47, -26, 47, 36, -59, 30, 46, -16, 42, -17, 33, 34, -27, 51, -60, -10, -27, -12, 35, -23, 41, 45, -62, -66, -51, 4, 41, 57, -22, -21, -7, 45, -13, -93, 11, -75, -47, 36, -9, -48, 62, 45, 9, 58, -13, -23, -41, -33, 56, -3, -18, 15, 41, -60, 26, 23, -5, 26, 20, 15, -18, 63, -43, 12, 25, -24, 13, 27, -76, -95, -21, -59, -34, 6, -21, 27, 24, -24, -39, 0, 24, -51, -25, 28, 59, 43, -12, 35, -2, 13, 20, -36, 50, -56, -41, -57, -17, 38, 40, 6, 37, -44, -15, 20, -109, -37, 44, -85, 0, 24, -10, -32, 14, 1, 25, 11, -18, 44, 71, 38, -8, 34, 19, -20, 41, -31, 6, -20, 49, -20, -42, 49, 40, 20, -18, 51, 45, -53, -7, 1, -22, -7, 30, 0, -37, 18, -26, -13, 2, 74, 15, 19, 0, -32, 27, 31, 52, 18, -43, 7, -40, -75, 53, 49, -14, 43, -72, -59, -1, 14, 8, 29, -33, 14, 31, -21, -41, -66, 10, 31, -52, -23, -42, 32, -14, 48, -3, -12, 64, -35, 0, 56, 17, 49, -15, -49, -57, 22, -22, -6, -38, 20, 11, 38, -27, -21, -46, 42, 54, 34, 26, -42, -66, -66, -61, -49, 28, -1, -9, -31, 35, 6, 14, 75, 29, -32, -22, 38, -29, 15, 14, 32, 15, -31, -10, -5, -23, -14, 22, -38, 98, 37, -24, 27, -72, -81, 64, 39, -15, -34, -47, 62, 52, -60, 54, -62, -27, -47, -28, -41, 9, 41, -40, -28, -30, -26, 59, 38, -43, -19, -15, -11, 11, 51, 45, -28, -19, -11, 33, 42, -62, -76, -34, -11, -81, 16, -50, 1, 51, 3, -17, 59, 8, -29, 26, 61, -3, -20, -54, -13, 16, 9, 14, -19, 53, -6, -30, -45, -4, 77, 36, -38, 72, -56, 32, -17, -57, -22, 28, 26, -12, -19, 1, 55, -5, -11, 29, -63, 46, -19, 6, -47, -77, 38, 10, -51, -13, 20, -28, 29, -32, 51, -64, 38, -23, -44, 0, 32, -53, 66, -17, -31, -27, 51, -49, 25, -86, -9, -32, 20, -15, 7, -65, -38, 45, -56, 15, -44, 1, 15, 39, 7, 22, -55, -51, -62, -29, 39, 15, -22, 44, -17, 4, -47, 43, -17, 49, 2, -83, 1, 20, 3, -83, -24, -49, -45, 44, -62, 11, 30, -24, 31, -25, -20, 59, -39, 71, 75, -8, -28, -55, -40, 7, -27, 30, -20, 62, -55, 47, -9, 52, -66, -24, -29, -47, -33, 32, 0, -48, 38, 46, -40, 59, -47, 15, -16, -30, 6, 31, 0, 45, 49, -50, 23, -15, -14, 54, 6, 11, 26, 10, 42, 14, 17, -46, 22, 76, -25, -55, 2, -23, -27, -21, -36, 34, -11, 47, 13, 11, 2, 58, -25, -58, 36, -15, -23, 40, 33, 3, -8, -10, -9, -44, 54, -44, 17, 17, 32, 3, 37, 58, -28, 95, -16, -63, -38, -47, -32, 27, 17, -73, -46, -47, -32, 45, 25, 0, 64, 7, 15, -65, -6, 27, 62, -10, 39, 26, -70, 72, -10, 18, -6, -36, -33, 63, 35, -27, 16, 57, -33, 4, 13, 4, 5, -38, -1, -57, -30, 4, 18, -40, -52, 26, -54, -29, -22, 59, 24, -11, -29, 32, 40, 76, -70, -29, 33, 2, -23, 73, -11, -20, 73, 42, -33, 15, -32, -55, 38, 12, -30, 20, -3, 14, 32, 87, -39, 41, 52, -2, 22, 17, 8, -10, -6, 14, -57, -26, 45, -4, -7, 39, -53, -50, 37, -17, -2, 65, 58, -20, -3, 29, -46, -57, -14, 59, -29, -7, -40, 0, -22, 50, 5, -40, -50, 50, -57, 26, 32, 67, 7, -58, 8, -45, -28, 13, -38, 22, 45, -62, 58, 6, -24, -4, -5, 50, 48, 55, -21, -27, -16, 17, -24, 29, -58, -35, -14, 39, 90, -47, -11, -30, -14, -71, 67, -40, 63, 33, 35, -54, -25, -15, 26, -12, -29, -27, 33, -21, -48, 13, 37, 24, 64, -25, -55, 8, -17, 43, -42, -20, -15, -10, -4, 57, 16, -24, -34, 21, 9, 12, -22, -67, -24, 55, -18, 25, -49, 0, -13, 12, -23, 40, -49, 8, -42, -33, -59, -11, -34, -23, -5, 28, 34, 15, 4, -14, 16, 56, 14, 28, 69, -46, -20, -50, 46, -70, 49, 29, 33, -32, -18, -56, -57, 9, -16, -51, 21, 62, -31, 46, 5, 15, 29, -26, 1, -55, -2, -42, 80, 29, -73, 65, 50, -26, 27, -41, 69, -51, -8, 34, -37, 6, -28, -27, 18, 26, -58, 45, 4, -55, 48, -27, -33, -62, 18, 4, 52, -39, 11, -28, -12, 35, 57, -55, -15, 27, -52, 11, -30, -35, 49, 42, 14, -11, -12, -1, -35, 1, -7, 0, -24, 3, 21, 21, -14, -13, -5, 13, -46, 43, 22, 37, -43, -31, -18, 37, 1, -68, 15, 14, 32, 10, -29, 1, 44, -24, 42, 27, 92, 26, 33, -55, 29, -31, 30, -4, 24, -43, -14, -46, 8, -20, 11, 22, 46, -30, 15, 47, -10, 20, -64, 29, 63, -83, 7, 1, 58, -36, -46, -61, -16, 22, 36, 37, -14, -36, 52, 2, -23, 10, -21, 37, -58, 49, 18, 9, 37, -17, -46, 8, -45, -58, -14, -9, -70, -28, 17, 9, 30, -6, -40, -88, 29, 35, 38, -29, -48, -59, 7, 31, 29, -51, 55, 32, -23, -68, 36, -6, 38, 4, -60, 35, -1, -36, 9, -53, -22, 14, 29, -2, 13, -41, 30, -34, -33, 26, 13, -61, 30, -53, -7, 7, 10, -49, 26, -3, 78, -7, 58, 0, -1, 10, 8, 65, -46, 28, -57, -35, -56, 12, -14, -40, -56, -14, 47, 57, 11, -24, 45, -44, -46, 3, 29, 50, -22, -8, -24, 17, -38, -38, 17, 4, 23, -25, 48, -8, -4, 14, 45, -68, -39, -20, -49, 32, 4, 11, -40, -22, 18, -60, 6, 46, 65, -14, -26, -21, -54, 41, -44, 38, -19, -37, -51, 64, 47, 45, -21, -90, -13, 7, 27, -47, -3, -37, -51, 32, -1, -6, -33, 85, -48, -29, 2, -20, -45, -71, 37, 45, 15, 28, -58, 69, -17, 34, 7, -1, 18, -33, -42, -55, 37, 39, 21, -20, -59, -32, 44, -42, -25, 0, 23, 90, -5, 37, 9, -46, -17, -3, 34, -1, 10, 5, -63, 26, 6, 27, -57, 19, -20, -64, -27, 32, 29, 88, -42, -29, 25, -52, 30, -47, 10, 81, -34, -31, -9, 13, 58, -44, -13, -74, 38, 68, 43, 21, -26, -26, -41, -36, -1, 63, 50, -40, 17, 46, 27, -59, 48, 36, 44, -48, 24, -7, -5, 42, 16, -83, 13, 48, 10, 27, -15, -15, -28, 10, 13, 6, 41, 31, 36, -3, -15, -32, 60, -30, -25, -26, -9, 18, -6, 50, 3, -11, 44, 9, 14, 23, 31, 30, 47, 11, 8, -8, -40, -37, 58, 12, -46, -2, 1, 101, -52, -45, 19, 15, 53, 70, -43, 31, 28, -24, -47, 53, -53, 13, -8, 21, -7, -38, 35, 45, -9, 23, -38, 12, 68, 53, 7, -83, 1, 4, -14, 29, -43, 28, -48, -29, -43, 31, -16, -53, -22, 57, -47, -16, -48, -46, -84, 58, -45, -30, 25, 13, -42, -37, 15, -14, -3, 39, 25, 42, -8, -5, -19, -44, -1, 33, 70, 33, -66, -57, -59, -59, -28, -45, -27, -23, 44, -30, -35, -18, -48, -52, -18, 54, -88, 11, -65, -29, -25, -55, 17, 55, -6, 45, -2, -40, -5, 18, -49, -6, -2, -14, -29, -7, -1, 13, -52, -14, -76, 1, -38, -28, -33, 22, 18, -36, 14, 10, -5, 23, 38, 3, 43, 32, -23, -43, 40, 7, 18, 54, 1, 21, -19, 73, -2, 35, -42, -26, -48, -18, 49, 4, 62, 13, -56, -62, 48, -39, 2, -17, 7, -39, -22, -20, -4, -55, 7, 3, 23, -25, -27, -48, -55, -20, 50, -54, -9, -53, 35, -51, 91, 21, 25, -55, 40, 34, -47, -55, -12, 9, -77, 17, -22, -15, -65, -43, 24, 73, 33, -37, -11, 9, 14, -7, -1, -34, -53, -52, 78, -3, -27, 10, 11, -10, 16, -29, -29, -9, -50, 46, -22, 41, -1, 19, -56, -40, -12, 20, 23, 66, 46, 24, -44, -54, 6, 36, 47, -58, -4, 25, 19, -27, 7, -26, 41, -18, 14, 20, 64, -70, -23, 15, -55, 35, -59, 53, 18, -62, 50, 1, 12, -6, 26, 30, 38, 7, -42, 42, -9, 24, 17, 39, -35, -43, 57, 32, -49, -4, 17, 47, 11, -35, 22, 29, 34, 10, 31, -54, 81, 38, 36, -34, -17, 61, 54, -19, -44, -10, 2, 4, -49, -43, 2, 2, 55, 40, 18, 46, 72, -82, 49, -47, 1, -32, 19, -11, 25, 10, 56, -47, 43, -5, 0, 34, 27, -50, 7, 26, 51, -19, 25, 5, -4, 8, 30, -44, 43, 43, -32, -24, -51, -1, 48, 28, 22, -57, -21, 37, -44, -48, -46, -28, 36, -66, 12, -52, 14, -18, -19, -19, -48, -43, -25, -55, 23, 22, -58, 5, 37, -49, -36, 22, 15, 50, -36, -26, -7, 13, 5, -73, -62, 38, 8, -49, -13, -47, 44, -52, 5, 8, -62, -22, 31, -30, -9, 36, 19, -43, 27, -52, -35, -39, -21, -38, -4, -53, -47, -13, -10, -41, -9, -56, -31, 24, 58, 36, 8, 30, 14, -22, 25, -26, 62, 33, -36, -49, 14, 9, -1, -13, 60, 5, 60, -70, 26, -10, 27, -49, -32, -1, -50, -33, -60, 22, -25, 18, -27, -47, 5, 6, 36, 22, 13, 40, 36, -3, 14, 23, 42, 19, -27, -54, 30, 47, -1, -32, -18, -77, 39, -9, 63, -40, -52, -45, -61, 67, -24, -30, -4, -38, -44, -23, 22, -4, 27, -40, -23, 73, 3, 15, 36, -40, -68, 51, -6, 8, 45, -10, 40, 26, 66, 27, 26, -39, 20, -61, 61, 22, 34, -69, 11, 4, 21, -12, 31, 48, -32, -36, -43, -42, 12, 9, -14, 79, 36, 27, 17, -38, -32, 53, 30, 44, -35, -25, 0, -2, 56, -32, 62, -39, -42, -33, 21, 70, -16, -18, 23, -66, -54, -48, -60, 32, -26, -44, -20, -43, -25, 54, 22, -38, 11, 43, -62, -40, 43, 6, -23, -49, -22, -10, -42, -24, 30, 52, -42, -77, -27, -34, 39, 38, 37, 16, 68, 69, -34, 11, -58, 32, 41, 43, -63, 17, -34, 25, 37, 61, -11, 8, 54, -13, -24, 18, 9, -12, 18, 10, 40, 33, 55, 26, -43, -49, 14, 29, -12, 28, 31, -22, -55, 8, 32, -59, -3, -35, -12, -42, 30, -19, -15, -4, 60, -22, -12, 57, 76, 62, -11, 3, 26, 57, -60, -5, -29, -72, 20, -1, 48, -52, 50, 41, -62, -34, 73, -10, -4, -62, -6, -35, 5, -19, 4, -39, -17, -52, -47, 54, 24, -43, -56, 35, 21, 32, -56, -40, 9, 38, 44, -68, 46, -46, -9, -29, -9, -50, 55, -63, -56, -30, -59, -1, 54, -33, 57, -51, -31, 1, -36, -70, -7, 46, 36, -51, 41, -14, -53, 13, 21, 60, 19, 42, -18, -3, -51, 23, 31, -34, -15, 22, -40, -3, 42, 24, -38, -9, 45, 53, -4, -44, 45, 7, -57, -63, 22, 19, 41, 17, -1, -44, -23, -30, 4, -20, -38, -10, 7, -29, 45, -27, 60, -23, -50, -5, 39, 36, 0, 6, 11, 30, -52, -21, -12, -7, -56, -29, 40, 67, -88, 18, -48, 54, 42, 59, -36, -56, 6, 28, -86, 24, -70, -17, 3, 2, -1, -16, 21, 17, -38, -47, 6, -20, -54, -3, 49, 46, 21, -12, -10, -39, 7, -11, 53, 70, -39, 35, -18, -16, 31, 60, 36, -51, 49, 29, -79, 33, -39, 51, -44, -11, -83, -11, 35, 32, 2, 38, 47, 84, -48, 32, -46, 49, -16, 76, 24, -8, 16, -46, 59, 72, -16, 34, 3, -36, -82, 10, 15, 7, -32, -20, -29, -23, 12, 11, -14, 60, -59, -32, -11, -27, -72, -11, 28, 32, 17, 11, -9, -8, -19, 75, -44, 17, -3, -32, 71, 10, -26, -10, -27, -32, 44, -57, 18, -60, -12, 56, 20, 35, 17, 2, -7, 51, 26, 19, 55, -50, 28, 85, 53, -24, 25, -66, -38, 17, 61, -53, -12, 15, 7, 59, -21, -17, 42, 3, 21, -48, -48, 88, 23, -38, -28, 1, -62, 37, 46, 1, 1, 13, -72, 20, 17, 43, -15, 21, 2, 2, 4, 3, 15, 68, 6, 4, -63, -30, 79, -25, 32, 2, -5, 13, -45, -34, 26, -16, -32, -68, 36, -23, 4, 44, -36, 53, -8, -2, -47, 29, 0, 58, -14, 36, 33, 28, -1, -30, -25, 34, 35, -8, 33, -102, -2, -13, -28, -61, 46, -13, -38, 41, 20, -21, -26, -41, -37, 68, -54, 58, 31, -51, -26, 21, 45, -24, -50, -19, -26, 58, -44, 90, 2, -47, 75, 32, 25, -66, 17, 48, -49, -41, 44, 57, 41, -64, 3, 8, -3, 28, 27, 64, 31, -33, -55, 3, -6, 43, 10, 27, -31, -22, -16, 35, 31, 40, -60, 25, -59, -83, 71, -27, 63, -91, -30, -44, -54, 74, 42, 37, 0, 19, -1, -53, -13, -27, -32, -48, 13, -11, 50, 32, -49, 32, 30, 35, -41, 48, -5, 39, 42, -42, 28, 50, -34, -83, 5, -45, -40, -22, -47, -23, -14, 27, 29, -40, -5, 53, -69, -40, 14, -11, -36, -45, -33, -8, 5, 2, -58, -17, 38, 43, -9, -58, -6, -12, 8, -31, -47, 64, -24, 25, -47, 50, 46, -5, 53, -8, -5, 25, -23, -4, -22, 37, 29, 30, 48, -9, 45, 9, -1, 12, -52, 15, 22, -37, -18, -52, -25, -27, 13, -38, -26, 27, 35, 50, -24, -34, 59, 70, 15, 39, -4, 62, 8, 35, 34, 51, -50, -16, -60, 7, -16, 67, -41, -34, 40, 16, -35, 1, 8, -50, 64, -1, -12, -55, -16, 64, 1, -4, -4, 9, 22, 69, 55, -34, 13, -51, -11, 60, -27, 54, 30, -40, -94, -16, -43, -8, -16, 35, -22, -31, -48, -15, 33, 73, 59, -28, -48, -43, 22, 18, 16, 61, -1, -5, 35, 41, 0, -57, 48, 44, 14, 37, -33, 40, -29, -3, -15, 23, 30, -21, -67, -33, -23, -5, -36, 41, 22, -21, -1, -39, 13, 22, -42, -33, 63, -37, -20, 32, 18, -67, 51, 64, 58, -2, 50, -51, 60, 35, 47, -29, -73, 24, -44, 69, 6, -74, -34, 75, -3, 55, 13, -15, 38, 12, 6, 18, 7, 31, 49, 50, -14, 10, 9, 13, 35, 8, -34, 4, 6, 62, 9, -17, 7, 2, 24, 13, -52, 10, 3, -47, -5, -84, 21, 37, -27, -19, 32, -46, -41, -51, -29, 50, 56, -60, -24, -56, 7, -54, -12, 50, 77, 35, 17, -12, 23, -26, 15, -1, 4, -13, -10, -44, 12, -10, -80, 43, 42, -20, -58, 34, 78, 15, -10, -35, -63, 20, -91, -37, 2, -12, -81, 48, -65, -31, 24, 13, -56, 34, -17, -9, -39, 10, 5, -59, -14, -6, -40, -48, -87, -47, -75, 33, 8, -79, 17, -36, -2, -56, 20, 15, -27, 41, -46, 41, -73, -72, -51, 54, -57, 10, -64, -33, 31, -56, 28, 19, -36, -23, -77, 29, -42, -22, 0, 1, 21, -29, -17, 43, 32, -51, -40, -65, 21, 16, -4, -7, -1, -39, 26, -12, -46, 1, 13, 44, 4, 40, 25, -58, 33, 20, -13, -18, 62, -32, 41, -24, -30, 19, 4, 9, -51, 62, 15, 40, -28, 52, -14, -9, 59, 55, -9, 62, 6, 41, -25, 64, -16, 48, 12, -40, 81, -28, -17, -12, -14, 6, 19, 25, -38, -18, 65, -34, -26, 29, -32, -15, 49, -6, -41, -41, -4, -28, 46, 44, -57, -66, -38, -24, -52, 32, 41, -14, 21, 5, 25, 18, 7, 4, -9, 49, -23, 32, 43, -48, -19, 38, -18, 44, 9, -47, -57, -23, 31, 54, 40, -58, -35, 40, 20, 27, -12, 35, 62, 17, 39, -29, -20, -41, 54, -20, 10, 18, -34, -21, 62, 15, 20, 4, -10, -65, 57, -15, 29, -23, -39, 23, 22, -8, 3, 37, -53, -53, -30, 18, -10, 7, -15, -9, -27, -36, 62, 5, -14, 30, -47, 10, 23, 78, -18, 60, -37, 17, -52, -9, -1, -6, -51, -12, 38, 33, -71, 19, -50, -5, -5, 29, -54, 35, -13, -47, -74, -21, -38, -36, -24, 58, -23, -27, 51, 40, 1, -38, -14, 70, -33, 23, -9, -19, 17, -19, 4, 43, 21, 14, -69, -46, -59, -1, -84, -8, -94, -24, 24, -68, 14, -9, -37, -17, -23, -17, -3, 38, -20, -47, -37, 24, 34, -37, -8, 66, -35, -41, -27, 18, -31, 64, 22, 26, -12, 56, -9, 52, -63, 56, 21, 52, 21, 0, 53, 20, -7, 0, 0, -7, -44, 39, -24, -2, -63, -35, -20, 17, -37, 45, 35, 7, -44, 32, -45, -55, -33, 1, -16, -41, 17, 43, -71, 20, -40, 23, -65, -53, 18, -48, 25, -13, 30, -45, -55, -15, -8, 28, 48, 28, 42, 30, 24, 16, 58, -36, -34, -3, 16, 55, -70, -36, -24, 50, -11, 52, -14, -42, -42, -11, 14, 7, -75, 5, -65, 44, 36, 42, -60, -12, 67, -37, -28, 15, 47, 0, 33, 56, -20, -40, -27, 46, -13, -21, 11, 54, 33, 52, -33, 69, -43, -26, 7, 34, 3, 61, -50, 8, -45, -49, 35, 26, 15, -28, 45, 18, -33, -6, -38, 46, 61, 8, 49, -82, 27, -31, 24, 8, -21, -10, 73, 68, 0, -1, -22, 37, -33, -59, -45, -7, 11, -36, -40, 10, 53, 49, -45, -25, 29, 2, 56, 41, -34, -30, -20, -56, 14, -50, -59, -12, 72, 47, 13, -44, -45, -47, -8, 8, 8, 12, 49, -44, 17, 10, -44, 25, -40, -76, 9, 23, 31, 7, -3, 2, -16, -44, 23, -7, 46, -11, -32, 46, 12, -15, -58, -2, 34, 66, -18, 57, 52, -28, 19, -48, -29, 47, 26, 78, -27, -35, -17, 49, -24, -2, -26, 62, -61, -22, -19, 65, 71, -8, -51, -17, 15, 5, 37, -66, -33, -27, -53, -26, -63, -36, 53, -33, 46, 2, 18, 72, -5, -51, -3, 42, -26, -44, 5, 16, 55, -3, -26, -68, 6, -5, 49, 38, 18, -59, -40, 42, -39, 18, 0, -50, -60, 37, -1, -21, -33, 9, 78, -2, -4, -26, 2, 20, 14, 33, -9, -37, 15, -28, 25, 0, -33, -2, -12, -78, 39, -8, 36, -42, -56, -15, 20, -34, -40, 70, 15, -9, -27, 38, 18, 46, -17, 41, -14, -65, -66, -50, -83, -61, 26, 47, -65, -41, 31, -31, 11, 55, -8, -71, -56, 14, -47, 6, -50, 23, 43, 51, 31, 34, -17, -15, -50, 30, 2, -38, 26, -3, -32, -42, 39, 42, 45, 13, 28, -27, -47, -72, 34, 2, -50, 28, 11, 32, -24, -15, -9, -16, -35, 1, 40, -30, -8, 30, 23, -18, 54, -33, -8, -19, -13, 32, -69, -7, 7, -9, -19, -13, -26, -46, 21, 19, 47, 67, 29, -26, -37, -28, 26, -55, 33, 24, 41, -64, 15, 51, 33, -3, -49, -5, 43, 12, -39, -40, -3, 66, 42, 49, -18, 28, 37, 18, 57, -20, -6, 10, -2, 1, -29, 63, -4, -7, -29, 25, -11, -81, -57, -49, 31, -16, -49, 62, -58, -27, 43, -56, 47, 18, 29, -35, -42, -15, 53, 7, 23, -17, 13, -7, -79, 15, -27, 34, 36, -6, 21, 4, -39, 28, 32, 19, 27, -41, 22, -76, -2, 15, 71, 4, 12, -45, -18, -11, -38, -26, -6, 11, 9, -32, -6, -14, 41, 34, -26, -34, -54, -44, 34, 6, 73, -15, -9, -6, -28, 6, 46, 1, 33, -43, 33, -42, -49, 35, -39, -26, 49, 30, -47, 86, 14, 22, -43, 30, -35, 23, 26, -10, -21, 45, 12, 8, -30, -5, -53, -12, -46, -60, 34, -26, -52, 33, 22, 54, -58, -47, -59, -18, -46, -85, 27, -31, -19, -57, 26, 28, 14, 18, -50, 39, 52, -13, 34, 45, -14, -20, -20, -36, -30, 7, 25, 9, 62, -39, 5, -32, 5, 12, -62, 45, -57, -81, -35, 7, -13, -83, 17, 2, 2, -46, -36, 51, 20, -9, -37, 12, 17, 51, 33, 40, -40, 55, 72, 46, 18, -9, -13, -32, 29, -34, -25, 13, -24, 21, -48, 30, -18, -78, 12, 56, 49, -92, 53, 13, -18, 19, -13, 71, -51, 41, 10, 32, -22, -12, 10, 18, 8, 36, 14, 73, 46, -37, -54, -1, 36, 72, -43, -11, 41, -10, -70, -35, -12, 41, 4, -26, -25, 3, 47, -57, -45, -37, 38, -3, 37, -5, 53, 47, 40, -46, -22, -12, -51, 14, 17, 0, -15, -61, -50, 1, -11, 9, 54, -43, -4, -38, 48, -26, 15, -8, 53, -39, 47, -5, 11, 56, 44, -21, 29, 19, 13, 51, 5, 47, -15, -66, 98, -48, -19, -17, 25, 26, -37, 26, 22, -35, -20, 24, -10, 35, 9, 10, 43, 67, -5, 41, 88, -2, 83, 47, 49, 63, 13, -42, 41, 23, 26, -5, -54, -36, -63, -14, -39, 35, 60, 22, 40, -55, -41, -18, 5, 34, -13, 7, 33, -12, -34, -1, 36, 2}

#define CONV2D_3_KERNEL_0_SHIFT (9)

#define CONV2D_3_BIAS_0 {2, 5, 1, 4, -1, 1, 6, 3, 2, 5, 3, 2}

#define CONV2D_3_BIAS_0_SHIFT (9)


#define CONV2D_4_KERNEL_0 {26, -29, 25, 0, -43, 35, -15, -39, -6, -47, -53, -59, 25, -35, -48, 24, 43, -58, 5, -40, 40, 52, -15, -1, 47, 22, -30, 13, 20, -24, -29, 31, 32, -27, -2, 17, 27, 30, 10, -26, 39, 44, 1, -33, 3, -48, -24, -5, 43, -19, 31, 14, -7, -8, 21, 40, 31, 3, 30, 33, 1, -64, -14, 31, 40, -29, 34, 20, 16, 40, -51, -23, 31, 80, -20, -8, -20, -48, -23, 37, -43, -22, -16, 7, -1, 63, 28, -60, 18, 35, 3, 9, 20, 42, 46, -7, -27, -5, -83, -68, -68, -3, -5, 28, -60, 46, 43, 51, -50, 23, -2, 19, 16, -36, 47, -23, -24, 46, 32, -22, -7, -31, -50, 37, -67, 6, 34, -37, 58, 58, -24, 28, -2, 45, -43, 16, -47, -26, -48, 6, -8, 31, 14, 36, 15, 29, -19, -10, -45, -41, 24, 4, -62, 59, 2, 8, -67, 42, -28, -10, 51, 20, -37, -60, -25, 29, -66, 28, -18, 53, -15, 0, -27, 7, -1, 5, -12, 51, 54, 22, 11, 34, -32, -20, 7, 51, 16, 0, 57, 15, 29, 9, -26, 1, 37, -58, -18, 32, -35, 55, -44, -6, 11, -52, -12, -4, 37, 33, 39, 10, 30, 14, -34, 22, -47, 11, -25, 62, -27, 1, -10, 20, -11, 15, 18, 32, -35, -13, -4, 16, 10, -39, -30, -30, 28, -52, -66, 46, 6, -39, -4, -83, -79, -37, -72, -47, 13, 1, -88, 41, 7, 15, -40, -47, -38, -54, -34, 32, -40, -53, 7, -8, -69, -63, 28, -8, -59, -43, -16, 14, -20, -59, -28, -7, -16, -16, 7, 40, 16, 0, 42, -72, -5, -30, -20, 22, -24, 52, -30, 37, 18, -5, -17, 9, 24, -9, -7, -34, 8, 1, 54, -17, 65, 34, -39, 55, 20, 42, 1, 11, -25, -25, -13, -53, 2, 29, -3, -39, 5, 5, -43, -13, 60, 3, 9, 59, 23, -37, 36, 34, -28, -21, -16, -75, 2, 54, -34, 7, -11, -43, -35, 5, -29, 55, -27, 23, 45, 3, -45, 48, 3, 50, -35, 62, -27, -17, -77, -23, -19, 26, -27, -21, -25, -36, -14, 11, 31, 36, -11, 45, 8, -39, 31, 56, 13, 35, 10, -5, 8, -45, -26, -54, -4, 37, 6, -15, 54, -34, -21, 18, 15, 66, 40, 28, 4, -39, -37, 58, -18, -58, 32, -27, 29, -34, -11, 30, 29, -21, 16, 26, -3, 2, 12, 35, 17, -7, 22, -29, -39, -56, 10, 36, -1, -18, 6, -32, 44, 35, -16, -66, -40, -48, 34, -5, 45, -68, 2, 22, 12, -20, 59, 21, -1, 12, -56, 10, 51, -47, 38, 18, 14, -31, -3, -25, -24, 46, -28, 0, -2, -21, -67, 0, 19, -7, -16, -48, 60, -39, 8, 23, 14, -14, -18, -37, 45, -64, -23, 35, -38, -71, -27, -17, 47, -3, -61, -35, -15, 8, 6, 10, -32, -35, -71, 8, -25, -13, -31, 13, 16, 54, -49, -27, -55, -16, -3, 74, 13, 5, 44, 31, 24, -15, -44, 9, 37, -34, 31, -8, 5, -26, 55, 19, -47, 58, -42, -39, 11, 18, 17, 24, 49, -45, -63, 9, -20, -5, -13, 41, 13, 16, -34, -41, 16, -56, -15, -21, -46, -61, -8, 68, -56, -2, 8, 14, -28, 13, -20, -26, 26, 14, 54, 8, -33, 50, -19, -19, -63, -53, 6, -34, -33, 3, 15, 31, 9, -21, 35, 20, 8, 4, 22, -27, 11, 29, 23, -12, -14, -10, -81, 22, -23, 6, 19, -11, -31, 14, -18, 50, 15, 26, 4, 51, 31, -43, -15, -15, 24, 29, -61, 36, 57, 35, -27, -80, 32, 8, -1, 29, 16, -23, 17, 4, -39, -24, 48, 4, 58, -12, -33, 72, 10, 43, 45, -14, -11, -17, -60, 38, 55, 7, 16, -41, -12, 46, -26, -13, 25, 49, -72, 3, 43, 5, 3, 30, -44, 25, -80, 38, 78, 26, -34, -37, 5, 3, 56, 57, -35, -42, 5, 35, 31, 19, 48, -25, -21, -17, 19, -26, 8, -40, 23, -14, -22, 6, -10, -46, 13, 11, -16, 3, -11, 13, 8, -12, -29, -36, -49, 17, -49, -1, 2, -35, -48, 25, -44, 28, -9, 49, 11, 30, -35, 27, 9, 11, 1, 48, -11, -34, -70, 31, -25, -19, 57, -19, 48, 14, 21, 72, 24, -10, -31, 11, -9, 20, 1, -4, -4, -32, 40, -16, -30, 26, 30, -41, -12, -22, -13, 7, -18, -66, 23, -7, -24, 40, 7, -6, 14, -28, -19, 29, 57, 25, 37, -5, -46, -9, -29, -9, -31, 10, 19, 14, 38, 24, 1, 33, -24, 28, 10, 6, 17, -43, -47, 10, 31, 15, 67, 46, -54, -12, 46, 41, -8, -3, -27, 1, -23, -55, 49, -48, -39, 52, 92, -17, -27, -30, 8, -30, 32, 11, -48, -37, 61, 4, -39, -1, 1, -29, 26, -1, 17, -52, -5, 4, 23, 15, 28, 82, -15, -40, -46, 68, -34, 18, -6, -48, -20, 45, 27, 44, 33, 13, 42, 17, -15, 16, 44, -30, -20, 41, -5, -38, -25, -19, 13, -50, -6, -15, 2, -36, -4, -39, -73, 55, -1, 25, 20, 56, 7, -8, -54, 28, -38, -41, -18, -1, -3, 14, 18, 3, 49, -39, 40, -56, -23, 42, -5, 56, 92, -3, 38, 0, 1, -41, 36, -32, 26, -24, -22, -43, 38, -41, 25, -58, -30, 29, 29, 21, -15, 16, -24, -52, 29, -25, 22, -4, 3, -6, -33, -16, 1, -16, 8, -59, 44, -42, 48, -15, 50, -70, 17, 36, 11, 24, -38, 42, 29, 59, 23, -22, 42, 34, -1, 1, -33, 22, 46, -25, -54, -60, 4, 21, 60, 44, 0, -40, 14, 25, -32, -32, -48, -70, -25, -4, -14, -11, 15, 79, -51, -36, -29, 24, -64, 47, -38, -14, 17, 12, 29, 19, 25, 13, -13, -41, 31, 11, -15, 56, 19, 28, -15, 23, -56, 62, -13, -3, -60, 40, 41, 24, 19, -40, 18, -12, 41, -23, -51, 40, -19, 42, 29, -9, -7, 54, -2, -79, 25, -38, -42, -82, -16, -36, -8, -18, 31, -1, -69, -65, 30, -2, 35, -29, 20, -21, -9, -45, 35, -22, 39, 36, -44, -36, -11, 55, 21, -28, -47, -38, -9, -8, 39, -43, 25, -33, -19, -38, -33, -13, 47, 18, -10, 20, 32, 6, -20, -61, -6, -6, 63, 2, 19, 0, 39, -41, 40, 55, 11, -21, 40, -10, -57, 2, -15, 45, 23, -46, -63, -40, 17, -31, -15, 15, 23, -37, -13, -38, 30, 14, 24, 33, -31, -36, -27, 6, -34, -61, -6, -78, 11, 8, 31, 37, -38, -37, -33, 43, 31, -58, 12, -45, -24, 44, -72, -21, 34, -4, -51, -38, -64, -27, 19, -55, -53, -23, 47, 17, -39, -22, -6, -14, -15, 31, -49, -46, -10, -37, -31, -24, 37, -11, -51, 10, 36, -43, -17, 57, 64, -17, 17, -61, 52, 37, 3, -45, 6, -31, -68, 35, -55, -13, 16, -7, -5, -38, 34, 49, 59, -49, 60, 1, -74, -44, 41, 15, 7, -13, -26, 56, 29, -44, -24, -30, -21, 60, 15, -28, -34, 27, -11, -39, 38, 58, -26, -38, -21, 30, -4, -41, 27, 42, 0, -2, 2, -21, -63, 2, -35, -26, -1, 25, 36, 13, 54, -26, -2, -42, -49, -40, 19, -34, 17, 14, -15, 21, -21, -1, 52, -34, 8, 40, 38, -42, 62, 62, -8, -25, -1, -15, 18, 49, 7, 40, 48, -17, -13, -13, -53, -38, -33, -21, -28, 16, 24, -28, 5, -49, -26, 40, 2, -18, -18, 16, -67, -69, -33, -22, 52, -51, 7, 39, -22, -3, -30, -21, -30, 28, -19, 35, 63, 40, -58, 32, 61, 3, -35, 10, -22, -24, 0, 62, -67, -41, -11, -4, 50, -43, -1, -22, -4, -35, 21, -22, -33, 40, -51, 62, -54, 28, -9, -54, -9, -19, 9, -12, 1, -47, 10, -4, 54, 53, 28, -12, 3, -2, 6, 48, -43, 15, 3, -16, -46, 9, -49, -11, 90, 13, 48, 78, 18, 2, -40, 55, 0, 32, 27, -6, -48, -15, -54, 40, -32, 27, -29, -9, -9, -8, -46, -34, 22, 36, 10, -75, 31, 18, -31, -9, -34, 26, 1, -45, -13, -18, -25, -49, -16, 56, 33, -47, -17, 17, -40, -19, 4, -23, -22, 51, -44, 45, 20, 26, -24, 2, -6, -41, -22, 29, -23, 16, -6, 25, 22, 50, -6, 50, -29, -70, -23, 13, -34, -79, 6, -12, -78, -26, -34, 38, -83, -8, 30, -40, 24, 19, 27, -28, 6, 14, 4, -60, -55, -15, -37, 76, 51, -24, -9, 19, -52, -12, 18, 0, -55, 4, -43, 22, 14, 3, -42, 53, 22, -37, 16, -52, 31, 38, -21, -67, 36, -14, -27, -16, -20, -13, 28, -40, 25, 17, -6, 34, 44, -9, -35, 3, -73, 34, 8, 44, 37, -37, -30, -41, -19, -35, -33, 20, 11, 30, -41, -17, -27, 50, -2, -6, 24, 44, 27, 38, 4, 48, -22, -27, 50, -31, -60, -49, -59, -19, 59, -17, 6, 79, -33, -52, -36, -26, -29, -2, -10, -51, -17, 19, 44, -30, 11, -37, -6, 10, 19, -26, -57, 45, -42, 7, 16, 9, -59, 16, -70, 23, -5, 1, 39, -3, -32, 28, -31, 22, 49, -12, 40, -74, -21, 28, -4, -41, -5, -9, -40, 71, 16, -2, -46, 2, 32, 77, 34, -8, 11, 8, 41, -25, 2, -36, 30, -37, -42, 5, 6, -9, 13, 61, 2, 1, 9, -5, -37, 24, -16, 45, -3, -45, 4, -6, -5, 37, -40, -56, 12, -32, 43, 18, -28, 17, 15, -24, -17, 19, -10, 1, 61, 29, -16, 52, 39, -27, 46, 33, -60, -8, 44, 27, 69, 20, -16, 26, -38, 13, -40, 33, -47, -45, 49, -18, 16, -3, 41, 12, -14, 45, 11, 14, 77, -20, 50, -39, 38, 6, -26, -45, 49, 38, -4, 24, -19, 63, -48, -34, -14, -16, 43, 26, 15, -69, -45, -2, 11, 71, -36, -30, 68, 3, 4, -49, -87, 54, -58, 45, -32, 53, 44, -9, 6, -53, -63, 48, 4, 59, 1, 42, 53, -16, 7, -49, 76, 7, -51, 51, -21, -35, 49, 45, -55, 90, -11, -49, -53, 58, 7, 39, 33, 19, -53, 6, 28, 42, 45, 24, -4, -27, 60, -47, 64, 5, -26, -59, 24, -26, -17, 22, -61, 8, -25, 51, -10, 60, 7, -25, 12, 47, -13, -23, 3, 11, -23, -27, -25, 39, 27, -59, -46, -50, -50, -35, 23, 31, -35, -7, -14, 52, -46, 0, 42, -14, 55, 59, 24, -56, -21, 22, -14, 25, -24, -10, -17, -32, 22, 39, 24, -5, -3, -63, 14, 34, -47, 45, -42, -49, -55, 67, -5, -10, 16, -17, -10, 31, -54, -14, -53, 49, -39, 41, 66, -25, 14, -2, 29, -25, -10, -14, 54, 46, -3, 60, -5, -32, -6, -48, -53, 33, -54, -34, -10, -51, -7, -4, 4, 32, 23, 10, 21, 47, 24, 23, 34, -1, -7, -55, 13, -13, 14, 44, 1, -42, 8, 46, -40, -27, 0, -30, -25, 29, -1, -28, -6, -66, 41, -30, -8, 53, 72, -29, 25, -11, -7, -5, 20, 13, -36, 1, -23, 7, 44, 58, 19, 82, 20, -7, -26, 26, 19, 13, 19, -19, 50, -28, 55, 30, 34, -9, 21, -34, -39, -26, -8, 5, -21, 36, -16, -20, 61, 4, 14, 8, -2, -33, 33, -25, 34, 29, -45, 5, 38, -29, -3, 73, -33, 6, -5, 27, 41, 66, 49, 49, 47, 8, -21, 14, 40, 21, -5, 57, -13, -19, 53, -23, -25, -18, 19, -13, 15, 31, -26, 47, 25, 49, -33, -29, 7, 29, 73, -22, -27, 12, 36, 63, 3, 44, -44, -31, -58, 27, 37, -23, 1, 17, -62, -45, -4, 46, -17, 57, 24, 8, -44, 29, 36, -45, 34, -39, -34, -64, -19, 17, -18, -3, -4, 36, -14, -6, -14, 34, 52, 1, -33, -33, 4, 8, 45, 34, -45, 29, 49, 38, -6, 60, 55, 49, 3, -74, 21, 0, 15, 52, -38, 59, 38, -37, 12, 6, -11, 44, -55, -5, 16, -40, -26, -14, 21, 62, 15, -37, -30, 4, -35, -25, -41, -60, -26, -6, 26, 50, 22, 19, 12, -33, 29, -7, 11, 17, -2, -40, 61, -6, 12, 14, 38, -32, -62, 42, 44, 36, -56, -48, 5, -1, 66, 69, 18, -56, -1, -16, 24, -9, 63, 4, -9, -2, -26, 24, 11, 29, 3, -29, -17, -14, -14, 43, 45, -19, -15, -9, -47, -41, -12, 57, -2, -9, 16, 72, 68, 41, 3, -41, 21, 14, -31, -21, -24, 6, -60, 25, -45, 13, -32, 17, 23, 19, -1, -35, -34, -27, 58, 31, 31, 47, 53, 66, 70, 4, -2, 2, 16, 11, 17, 25, 38, -17, 29, -8, -26, -32, -16, -6, 40, 59, -4, -8, 54, 43, -23, 26, 16, 9, 35, -25, -53, 49, 28, 37, 0, -70, 29, 38, -47, -34, 32, 49, -18, 13, -54, 2, 45, -12, 13, -61, 60, -52, -29, -15, 16, -6, -1, -26, -27, -33, -1, 9, 10, 33, 37, -42, 7, 34, 13, -88, -58, 48, 48, 62, -36, -44, 9, -61, 16, 17, 52, -41, 44, -32, -37, -35, 18, 10, 6, 45, 31, -25, 14, 41, 37, -28, -42, -24, -23, 19, -10, 16, 23, -25, 22, -77, 7, -33, 57, 35, 25, -26, -53, -51, 38, 36, -7, -50, 27, 39, -14, 51, -54, 35, -21, 20, 5, -23, -6, 23, -41, -16, 1, -3, 2, 0, -24, 45, -44, -9, -21, 42, -41, -3, 36, 7, 28, -53, -11, -16, 1, -19, 26, -49, 3, -40, -24, -22, -40, -36, -17, 45, 38, 24, 46, -49, 3, 2, -25, -18, -15, 19, -39, 25, -13, -3, 14, -29, 21, -30, -22, -1, -22, 21, 9, -8, -25, -15, 25, 37, -37, 24, -34, -31, 15, -21, -3, -29, 44, -26, 20, -8, 65, -23, -4, 33, 54, -42, -15, 30, 32, 14, -19, -27, -62, -44, -40, 38, -12, 22, -20, 1, -49, -5, 24, 53, -30, -62, -19, 39, 4, 19, 44, -39, -58, 52, -4, 74, 36, 43, 5, -30, -21, -23, -81, 23, -35, -4, -46, 0, 58, 12, -11, -17, -38, 24, 0, 17, -21, -48, -24, -3, 13, -14, 3, -17, 38, -28, -28, -32, 23, 49, -18, 40, -34, -54, 64, 38, 6, -52, -47, 19, -50, -22, 3, 67, 26, -36, 49, -28, 40, -27, -10, -7, -36, 26, -3, -33, -29, -31, -31, 34, 15, 3, 69, -23, 29, -35, 2, -23, 51, 2, -52, -19, 78, 23, 6, 36, -41, 4, -25, 20, -51, -33, 1, -37, -19, 3, -28, -47, 18, 53, 55, 37, -38, -5, -54, 23, 12, 25, -2, -25, -3, -14, 50, -3, 58, 34, -41, 29, -10, -48, 9, 55, 71, 49, -45, 27, 24, -48, 51, -47, 15, 45, 6, 45, 0, -35, 17, 58, 0, 21, 33, 28, -32, 22, 26, 4, -36, 26, -4, 20, -62, 19, 5, 20, 44, -6, 29, -7, 50, -60, 58, 7, -36, 29, 45, -12, -11, -13, 14, -19, 17, -19, -5, 15, 42, -28, 40, 19, 54, 55, -63, -18, 32, -37, 30, 19, 18, -36, 36, -18, 13, -26, -53, 39, -9, 14, 44, 57, -41, -38, 20, 11, -8, -36, 63, 6, 46, -21, -38, 4, 37, 27, 11, -77, -25, 18, 41, 41, 5, 29, -66, 16, 45, 24, -41, 54, 3, -18, -1, -64, 50, 27, -41, 2, 51, 7, -22, -9, 5, 40, 5, -70, 47, -45, 66, 23, -6, 40, -33, 1, -21, 29, -62, -31, 45, -8, -15, 17, 30, 13, -55, 15, -4, 0, 39, -10, -40, 56, -27, 14, -46, 31, 30, 18, 10, -22, -6, -15, -29, -3, -52, 40, -32, -65, -25, 9, -10, 34, -58, -15, 62, 9, 13, -28, 5, -38, 8, 46, 13, 28, -16, 11, -77, 7, 18, 49, 1, 39, 15, -35, -39, -15, -48, 2, -26, -5, -57, 33, 7, 35, -9, -5, -52, 11, -11, -11, -8, 11, -59, -38, -62, 44, -36, -30, 26, 0, 33, -40, 28, -43, -46, -13, -34, 4, -3, -48, 15, 53, 59, 40, -44, 46, -68, -48, 46, 44, 44, -4, -64, 35, -21, 30, -2, -62, -2, -34, -31, -22, 2, -31, 17, 76, 12, 32, -31, 25, -3, 55, 65, 15, 12, 32, -34, -40, -27, -15, 58, -53, 35, 17, -27, 27, -43, -25, -14, 9, -11, 1, 9, -23, 31, -5, 7, 6, -23, 14, -50, -15, -63, -36, -31, -4, 30, -13, -13, 13, -30, 5, 39, -1, 5, 10, 30, -58, -12, -14, 14, 14, -52, 29, 25, -13, -19, -9, 56, -23, -20, -2, 45, 47, 8, 13, -2, 0, 50, -4, -65, -41, 29, 32, -37, 38, -28, -57, 15, 37, -33, -38, 36, 26, -63, -54, -40, -40, -36, -20, 8, 52, -36, -41, -71, 42, -34, -63, -2, 22, -64, 48, 49, 2, 33, 8, 46, -13, -74, 9, 23, -40, -45, -52, -4, 9, 29, -54, -63, 29, 32, -42, -16, 4, 20, -44, -51, -6, 41, -25, 10, -61, -52, 8, -24, -5, -77, 41, -30, 59, -3, -28, 65, 54, 35, -10, 9, 52, 31, -10, -45, 2, -34, -52, -30, 41, -54, -54, 15, -34, -18, 42, -64, 20, 26, -14, 7, 40, -53, 26, 15, 28, 42, 1, -13, 15, 0, -15, 50, 31, -52, -45, -51, -36, 14, 16, 30, -19, -21, -58, 24, -33, -1, 11, -44, 46, -49, 37, -51, -9, 7, -21, -25, 11, 36, -44, -11, 45, -24, -47, -61, -32, -39, -46, -52, -2, -10, 49, -10, 8, 21, -23, 32, -45, 12, -29, -31, 66, -19, 10, 21, 7, -30, -33, 46, -41, -42, -14, -8, -40, 27, 21, -40, 34, -50, 32, -40, 15, -15, -31, 3, 10, -9, 5, -7, 34, 35, 1, -17, 8, 8, -37, -19, 46, 24, 9, -42, -31, 11, 9, -32, 22, 7, -17, -5, 29, -14, 25, -31, 46, -17, -12, -10, -22, 40, -9, -69, -38, 25, -7, -73, -19, -70, -31, 50, 23, 4, 19, 5, -26, -24, 15, 1, 59, 0, -52, 59, -28, 40, 11, -61, 43, 53, 34, -7, 41, 30, 15, 10, -14, -41, 7, 3, 14, -5, 15, 12, 6, 53, 33, 14, 27, 9, -55, -22, -25, 26, 26, -39, 4, -2, -42, 36, -36, 29, 19, 63, -24, -40, 1, -35, 72, 14, -29, 29, -20, 18, 62, -39, 18, 45, -35, -31, 0, -2, -14, -11, -8, -9, -17, 21, -12, -9, 37, -2, 85, 33, -50, 17, 28, -32, 24, -38, -8, 22, 47, -32, -43, -6, 6, -27, 31, 0, -37, 48, 15, 56, -60, 11, 25, 16, 41, 94, -36, 55, 18, -13, 23, -12, 4, -9, 33, -40, 21, 35, -5, -29, 27, -6, -63, -7, 51, 5, 35, 53, -20, -2, -46, -47, 11, -1, -32, 26, 13, -29, 38, 55, 19, -39, 9, 36, -1, 71, -11, 1, 40, -26, 18, -57, 53, 15, -24, 49, -54, -51, -9, -9, 5, 49, 47, -14, -19, 2, 10, 5, -45, 80, 50, 3, 2, -30, 34, 54, -32, -28, 35, -12, -42, -58, 13, -37, -16, -13, 46, -9, -63, 31, -26, -33, 58, 35, 5, -25, -26, -12, -6, -52, -30, 19, 61, 45, -30, -17, 42, 23, -25, 47, -13, 15, 25, -2, 49, -26, -18, -35, 2, -56, -2, 28, 28, 49, 3, -37, -29, -64, -43, -71, 23, 9, 49, 18, 12, 33, -47, 67, -27, -2, -31, -36, -37, 44, -18, -11, -39, 40, -55, -40, -36, 47, -45, -11, -19, 38, -18, 10, -10, -34, -46, 63, 23, 56, 15, 35, -33, -30, 0, -17, 16, -12, -31, 31, 41, 48, -18, -50, -64, 49, 43, -64, -1, -6, 6, 28, -18, 6, 14, 48, -28, 11, 47, -31, 47, -50, 58, 20, -36, -19, -16, -4, 44, 61, -26, -1, 86, 1, 45, 38, 11, -15, 65, 66, 61, -31, 29, -50, -59, 43, 11, -18, -44, -17, 19, -83, 36, -7, -37, -35, -18, 9, -50, 16, -15, -6, -13, 73, 21, -9, 61, -33, -20, -15, 22, 25, -27, -16, -33, 54, 32, -2, -12, -6, 8, 33, -13, 23, -31, -4, -17, 26, 8, -45, 2, 29, 29, -23, 1, 26, -31, -13, -6, -112, -21, 16, -38, -40, -30, -17, -51, -1, 78, 60, 69, 41, -20, 36, 13, 6, 5, -48, -63, -5, -32, 23, -34, 42, 15, 8, 25, 28, 30, -50, 38, 23, 42, -7, -32, 40, -20, -38, 31, 28, -35, 20, 28, -4, 62, 65, -6, -44, -29, 27, -22, 28, 30, -16, 37, 8, -12, 11, -28, -22, 17, -58, -27, -42, 34, -55, -31, 31, -14, 20, 5, -53, 43, -42, 14, -30, 44, 32, -23, -27, -75, -54, -54, -66, 42, -7, -25, 18, 51, -19, -42, -21, 80, -30, 38, -57, 36, -44, -23, -33, 41, 26, 36, -1, -42, 6, 43, 5, -23, 12, -40, -3, 27, -48, -1, 34, 1, -57, 1, 1, -4, -36, -46, -24, 15, 13, -1, 36, 6, -48, -47, -10, 27, -31, -1, 54, -46, -25, 18, -11, -36, -34, 42, -6, -10, 24, -46, -36, 43, 25, 21, -40, 9, 1, 4, 32, 7, -21, -54, 11, 33, -9, 4, 42, -2, -37, 42, -58, 30, -16, 30, -55, 58, -56, -4, 9, 39, 47, -52, 19, 27, -5, -64, 50, 15, 49, -33, 51, 75, -11, 51, -59, 44, -7, 19, 43, 49, 6, 0, 27, 9, -26, 6, 6, 45, 36, 73, -51, 26, 73, 25, 67, -15, 24, 7, 1, 14, 8, 38, 40, -1, 42, -25, 44, 19, 27, 46, 12, 55, -7, -49, 55, 16, 27, -41, -27, 33, 56, -24, 40, 38, 47, -26, 32, 26, -12, -8, 43, 6, 58, 70, 36, -27, -61, 32, 14, -5, -25, 26, -2, 0, 18, -2, 28, -41, -17, -7, 28, 3, 35, 20, -15, 36, -44, -15, -21, 58, 52, -19, 51, -39, 17, -45, 67, 53, -27, 82, 27, 15, -42, -50, -24, 67, 31, -13, 29, 38, 39, 46, 64, 8, -15, 15, 30, 55, 7, -36, 71, 3, 37, -23, 21, -5, 49, 2, 18, -17, 27, 34, 61, 19, -17, 11, 18, 39, 33, -47, -9, 21, 43, -42, -41, 35, 26, -18, -2, 60, 22, -21, 2, 18, -20, 56, -40, -50, -13, 7, 24, -49, -43, -39, -28, 69, 23, -7, 33, -22, -14, -2, 59, -11, 37, -71, -33, 33, -26, -24, -44, 0, -73, -6, -11, 20, 9, -24, -34, 38, -18, 56, 36, -13, 5, -5, -25, -24, 24, 31, 20, -36, -66, -25, 10, 38, 32, -31, 28, 12, -11, -40, 41, 65, -13, -39, 22, 28, 47, -45, -17, 41, -43, -14, 38, 29, 34, 52, 41, -18, 16, 38, 16, 58, -19, -13, -27, 69, 45, 8, -24, -23, 37, 26, 4, 48, 26, -52, 52, -32, 17, -19, -19, 3, -37, 3, -41, 44, 43, -6, 7, -53, 32, -35, 9, 79, -6, 0, 54, -32, -1, 46, -36, 43, 27, -42, -43, -31, -20, -13, 49, 2, 13, -29, 1, -31, 23, 39, 31, 49, -31, -6, 40, -15, 32, 25, -22, -23, -35, -48, 30, 45, 18, -7, -83, 33, -58, -42, -52, 49, -62, -40, 17, -41, 3, -37, 17, 13, -23, 29, 5, 19, 0, 9, -24, -51, 18, -73, -6, 10, -17, 13, 35, -21, 57, -52, 12, -46, -36, 4, -17, -6, -15, -26, 24, 6, -39, -22, -38, -46, 46, 59, -18, -38, -49, -27, 43, 65, -48, -67, -28, 38, 49, -43, 24, -3, -50, 48, -39, 0, -41, -18, 4, -63, 13, 26, -15, -25, 26, 15, 17, -2, -42, 2, 12, 8, 20, 46, 20, -33, -42, -18, 21, 22, -67, 28, 18, -12, -61, -27, -83, -17, 0, 23, -40, 4, 14, -25, 18, -20, 3, 1, -35, -69, -88, 35, 13, -44, 30, 49, -9, 38, -66, 14, -45, 0, -23, -15, -11, 22, 0, -46, 29, 39, 7, 63, -21, -38, -36, 38, 4, -28, 67, -23, -65, -61, 1, -62, 14, 20, -14, -19, -27, 40, -2, -49, 55, -12, -36, 29, 10, -25, -18, -61, 19, -36, -27, -31, 28, -75, 7, 32, -46, 36, -15, -50, -38, 6, -70, 8, 46, -8, -34, 24, -11, -29, 34, 32, -6, 11, -6, 9, 23, -2, -38, -10, -13, 30, -37, -30, -29, -10, 25, 3, -29, -41, -2, -4, -18, -27, -28, 16, 39, 24, -64, 17, -21, -8, 13, -13, -37, 51, -26, 26, -1, -4, -18, 40, 11, 26, 16, 38, 16, 76, -53, -31, 50, -48, 28, 62, 32, 11, -7, -3, -48, -51, -3, 19, 18, 16, 60, 2, -47, -37, -9, -52, 17, -40, 28, -68, -29, 14, 8, -19, 27, -32, 7, -58, -33, 38, -37, 28, 42, 18, -53, 41, 9, 40, -27, -9, -21, 21, -58, -20, 25, -5, -6, 15, 68, -45, -50, 8, -32, -36, -16, 23, 10, -38, 33, -47, -53, 29, 47, -3, 9, -19, 13, 29, 33, 10, 24, -39, 30, -20, -46, -48, -40, -11, 4, -9, -58, -57, -61, 14, 17, 32, -53, 70, -19, 16, -29, 20, 57, -6, -6, 25, 31, -35, -5, -66, -41, 1, 16, -51, 31, 30, -30, -66, 43, -33, 42, 16, -53, 5, -81, 43, 18, -23, -45, -36, -13, 38, 12, -24, -100, 44, -26, -19, -51, -12, -51, -20, -15, 44, -46, 26, 3, -5, 0, -9, 34, -73, 13, 41, 21, 12, 46, -47, -77, -26, 21, -19, 48, 52, 39, -31, -11, -60, -25, 0, 33, 34, -53, 22, 4, -24, 60, 18, 31, -12, 50, -21, -41, -36, 4, 21, -64, -3, -34, -44, -71, 48, 11, 22, 54, -38, 51, 23, -57, -57, -63, 24, 22, -38, -35, 24, 10, -12, 1, 13, 13, 53, -7, -58, -47, 49, -12, 49, 49, -11, 9, 29, -46, -22, -49, -47, -63, -17, 13, -38, 14, -68, -15, 38, -35, 11, -5, -17, 33, -2, -49, -9, -62, 17, 44, -62, -20, -31, -18, 0, -24, 7, 36, 62, 52, -47, -41, -75, -19, -34, 2, -40, -44, 4, 48, 19, 22, 11, 10, -62, 14, -24, -32, 11, 14, -13, -24, 17, 36, 0, 16, 31, 58, -28, -7, 1, -37, 37, 8, 23, -13, -24, -27, -17, -1, -2, -58, -21, -60, 17, -78, 14, 22, 44, -20, -6, -13, -7, -29, -41, -18, -38, 23, 47, -29, -8, 11, 28, 14, 34, 24, -32, 13, 43, 18, 40, -42, -28, -79, -67, 34, 27, 31, 21, 16, 50, -28, 29, -6, -33, -52, 44, -25, -66, 28, -44, 26, -30, -29, -35, -15, -19, -4, -15, -41, 22, -50, 0, 41, -3, -64, -32, 1, -13, -57, 3, -38, 17, 24, 24, -10, 0, 56, 2, -41, -19, 7, -40, -19, 23, 14, 26, -20, -43, 18, -27, 37, -59, 0, -45, -24, 7, -56, -39, 15, -34, 31, -34, 24, 25, -75, -17, -60, 64, 0, 35, -23, 35, 24, 54, -39, 22, 15, -37, 7, 22, -53, -63, -20, -4, 28, 20, -30, -47, 45, 1, 47, -18, 1, 32, -20, 62, -83, -44, 32, 53, -39, 15, -33, -8, -56, -3, -42, 25, 44, -47, -21, -62, 3, -27, -8, -9, 22, -39, 13, 29, -46, -27, 2, -40, -30, -49, -40, 17, -1, 11, 42, -43, -44, -14, -43, 44, 46, -47, 6, 47, -3, -48, 53, 38, -1, 54, 39, 37, 9, -2, -54, -42, -14, 56, -19, -29, -2, -23, 73, 2, 0, -2, -52, 15, -14, 43, -29, -11, 23, -31, 2, 7, -16, 11, -54, -40, 53, -65, -39, -67, 51, -1, -1, -45, 38, 30, -34, -3, -26, -39, -26, -5, -1, 30, -32, -48, 38, -32, -35, -3, 5, 15, 27, -45, 39, 13, 27, 30, -1, -10, -33, 36, 20, -56, 20, -34, 39, -32, 10, 3, 1, -51, -44, -47, -44, -37, 28, 7, -28, -41, -21, -14, -30, 50, 31, -44, -27, 36, -4, -4, -76, -12, -57, 52, 44, 5, 23, -12, -9, -8, -10, 22, -27, -32, 60, 0, 38, 31, -1, -16, 31, -52, -35, -52, 57, 22, 30, -26, -62, 7, -20, -60, -35, 14, 22, -1, 22, -58, -44, -64, -36, -40, 58, -27, -20, -6, 33, -35, -33, 34, -20, 41, 31, -30, 22, -56, 17, 10, -42, -19, 27, -21, 26, 42, 22, 3, 45, -10, 18, 39, -43, -8, -2, -29, -17, -8, 12, 55, -28, 60, -48, -14, -14, 8, -35, 11, -13, 34, 15, -8, -41, 28, 50, -44, 18, -29, 34, -38, -5, -11, -44, 81, -12, 10, 29, -41, -52, 32, -56, 43, 21, 53, 58, -44, 17, -4, 63, 32, -26, 34, -19, 51, -40, 34, -40, -3, 50, 21, -10, -4, -6, -17, -63, 50, -27, -38, -45, 32, -51, 56, 6, 30, -24, -63, 30, 10, 23, -31, -37, 61, -34, -79, 44, -10, -58, 40, 28, 64, 8, -20, 32, 51, 35, -25, -5, 59, -58, -16, -19, 40, 28, 30, -28, 3, 3, -12, 8, 25, 38, 22, -25, -16, -43, 69, 8, 7, -29, 17, 5, -44, 6, 9, 38, 60, -44, -13, -27, 34, 2, 10, 15, 23, 10, -32, 26, 55, 30, 40, 59, 47, 15, 4, 47, 59, -9, -39, 34, -20, 20, -28, -32, 31, -20, 2, -55, 53, 30, 5, 0, 15, -3, -4, 3, 67, -44, 25, -14, -41, -23, -39, -4, 57, -27, -34, -9, -16, -31, -22, -25, 40, 9, -27, -40, -30, 26, 30, 18, -35, -64, -40, 51, -42, -11, -44, 52, -36, 45, -35, 54, 22, -9, 19, -19, -3, 29, 15, 23, 69, 7, 61, -12, -24, 19, 19, 15, -23, 47, 14, -36, -22, -25, -80, -41, -36, -6, -34, 47, 11, -57, 35, 46, 0, -31, 17, 60, -10, -36, -36, 19, -15, 37, -11, -4, 29, 51, -41, -10, -59, 14, -3, -10, -34, -19, 14, 46, -20, 33, -29, 60, -22, 39, -55, 18, 4, -50, 22, -40, -54, -76, 1, -4, -7, -38, 59, -59, -21, -47, -11, -21, -5, 57, -20, 28, 31, -36, 34, 25, -47, 17, 45, 9, -30, -8, 17, -19, -12, 53, 10, 20, 34, 51, -32, -22, -49, 15, 26, 49, 48, 25, -19, 56, 54, -34, -60, 41, -43, -37, -47, 52, 22, -28, 0, -45, 7, -52, 13, 15, 51, -10, -41, 57, -43, 39, 15, -9, 44, -2, 34, 36, -10, -32, 31, 35, 30, 38, 31, -15, 51, 40, 71, 7, 26, -18, -37, -53, 60, -33, -27, -6, 21, -4, -75, 9, 45, -30, -76, 4, -15, -67, 44, 14, -11, -36, -46, -19, -11, 44, -8, -52, 26, -26, 48, 24, 5, 4, -20, 34, -8, -47, 7, -36, -12, -29, -22, -24, -27, 31, 44, 27, -31, 63, 10, 45, 56, 55, -6, -27, 58}

#define CONV2D_4_KERNEL_0_SHIFT (9)

#define CONV2D_4_BIAS_0 {28, -17, 35, -2, -69, -12, 12, -8, -57, 16, -52, 22}

#define CONV2D_4_BIAS_0_SHIFT (12)


#define CONV2D_5_KERNEL_0 {57, -9, 36, 52, -32, 15, 16, 23, 41, -21, -44, -27, 13, 11, 15, 7, 42, -67, -60, -55, 63, -16, -47, 32, 8, 17, 45, -67, 29, -19, -25, 71, 29, 36, -12, -43, 44, -68, -51, -50, 58, -19, -43, -55, -8, 42, 75, -9, 53, 56, 24, 56, 38, 43, 40, -44, 51, -2, 35, 44, -2, -65, -80, -37, 1, -51, 58, -62, -48, -18, 8, -17, 47, 57, -21, -49, 18, 57, -28, -24, 27, -22, -22, 20, -20, -38, -63, 32, -21, 19, -44, -58, 21, 38, 34, 78, 2, -16, 32, 7, -52, -49, 57, 8, -40, 35, 55, -50, 41, -15, 58, -38, -28, 64, -59, -2, -5, 53, 35, 10, 9, -55, -66, -14, -30, 36, -7, 20, -90, 13, -8, 26, -7, 5, -53, 11, 11, 32, -49, -37, 30, 60, -43, -19, 43, 26, -68, -21, 35, -63, 26, 43, 73, 4, 45, -43, -32, 42, -46, 36, -29, -21, -40, -7, 25, -19, 4, 36, 63, 20, -48, -26, 4, -6, -43, -63, -37, 15, 8, -27, -22, -10, -5, 62, 10, -10, -31, -11, -15, -18, -33, 65, 54, -25, 15, 55, 51, -62, 31, -60, 19, 51, -31, -20, -45, -11, -28, 21, 16, 31, -46, -4, 28, -48, -68, 72, 21, -43, -67, 23, -20, -4, 6, 50, -22, 24, -13, -8, -33, -59, 14, 36, -9, 7, -50, -60, 13, 16, -59, -12, -52, -29, -80, 47, -31, -7, -17, 39, -19, -31, 37, -39, 29, 36, -32, 19, -62, -17, 8, 48, -11, -26, 39, 56, -28, -70, 22, 37, 8, -41, -45, -47, -37, 63, -61, 7, -58, 17, 6, -15, 30, 51, -18, 20, 8, 37, -52, 31, -60, -11, -14, 68, -29, 33, 36, 4, -44, -42, -41, 69, -25, -66, 28, 18, 36, -22, 4, -57, -43, 52, -61, -44, 52, 65, 9, 0, -38, -29, 56, -35, 42, -54, -11, -52, -33, -29, -38, -75, -14, -34, 16, -13, 52, 46, 46, 30, -8, -40, -38, 0, 32, 36, -17, -29, -32, 21, 53, 38, 21, 31, 52, -19, -42, -42, 43, 9, -25, 10, 56, -85, -9, -62, 18, -2, 8, 41, -56, -3, 52, -74, -27, 64, -81, 60, 11, -53, 27, -58, -26, 49, 59, 22, 10, 7, 11, 10, 28, 34, 11, 60, 39, 38, -64, -41, 2, 26, 5, 21, 33, -41, 49, 25, 53, 19, 8, -37, -46, -17, -51, 69, 50, -50, 48, 52, -55, -2, -41, -42, -41, 53, -68, -55, -25, -47, 11, 18, -5, -24, -64, -69, -50, 56, 45, -51, 5, 43, 55, -17, 2, 33, -30, 6, -64, 51, -48, -41, 10, 5, -18, 22, 31, 40, -36, -68, 43, 47, -55, -15, -47, -37, 61, 40, 56, -1, -54, -26, 31, 4, 18, 29, 44, -33, -59, 14, 36, 1, -54, -64, 16, 26, -58, -54, -10, -55, 35, 48, 12, 12, -18, 22, 37, -14, 30, 24, 47, -4, 3, -19, -61, -13, -65, 6, -25, 22, 59, 14, -15, -68, -47, -24, 42, 61, -24, 56, 30, -47, -56, 17, -50, -20, 13, 64, 39, -4, -1, 12, 65, -34, -18, -12, 21, -60, -27, 39, 9, 59, -43, -13, -38, 30, -10, -17, 12, -21, -26, -51, 53, -13, -12, -52, 1, 3, 9, -55, -35, -40, -28, 58, -25, -16, 2, 17, -63, -4, -42, -21, -14, 29, 23, 51, 21, 48, 33, 47, 63, -21, -8, -47, 1, -18, -16, 51, 56, 61, -3, -20, 44, 34, -7, 11, 38, -68, -15, -25, -26, 46, -18, -72, -28, -11, 50, -9, -37, -9, -15, -32, -9, 45, -19, 29, 44, 1, -42, -44, 51, 24, 10, -11, 14, 48, 12, -78, -19, -5, 68, 31, 31, -19, 54, 29, 49, -30, -65, -30, -9, -49, 5, 2, -2, -42, -11, -67, -40, -31, -1, -47, 60, 3, 13, 8, -3, 34, -21, 1, -3, 31, -49, -12, 45, -23, -70, -11, 41, 5, 51, 29, -49, 29, 50, -58, 21, -7, -28, -73, -31, -73, -44, -37, 32, -67, 15, 34, -30, -34, -22, 21, -21, 47, 69, -55, -59, 41, 50, 33, -32, -42, 38, -37, 7, 3, -55, 63, 51, 57, -15, -38, -48, 44, -71, -32, -7, 50, 14, -10, -66, -19, 35, -35, -43, 10, 66, -65, -8, 41, -5, 39, 32, 59, 27, 12, 25, 36, 39, 18, -39, -30, 33, 50, -6, 18, -18, 16, -12, 57, -6, 23, -55, -32, 56, 12, -20, 51, 35, -26, -48, -26, 33, 10, -62, 45, 38, 0, -15, 15, 26, 0, -29, -15, 61, 49, 8, -40, 43, 37, -44, -39, 11, -44, -53, 5, -40, 41, -78, 4, -11, 35, -34, -68, -41, 62, 3, 29, -27, -18, 16, -18, -61, -21, -42, 42, 18, 9, 43, 15, 11, -17, 35, -39, 60, 35, -59, -21, -10, -52, -1, 18, 21, 65, 41, -48, 37, -42, -31, 24, 21, 53, -22, 28, 37, -5, -2, 41, 38, -85, 26, -26, 29, 47, -8, 23, -38, 0, 63, 31, 49, 37, -21, -50, -17, -15, 48, -4, -51, -39, -59, 48, -37, 17, -15, 10, 8, -57, -21, -27, 68, -78, 33, -36, 39, -7, -22, -55, 49, -64, -2, -76, 64, -79, 39, 20, 38, 40, -12, -42, -30, -24, 54, -50, 19, 0, 54, -34, 8, -9, -8, -72, -52, 11, -53, -54, 18, -49, -1, -50, -34, -73, -8, -42, 11, 65, -71, 25, 30, 9, -17, -15, -5, -6, 20, 21, 4, 51, -13, -16, 37, -20, -29, 56, 46, -28, 18, -25, -37, 27, 43, 50, -20, 31, -32, -45, 20, -9, -19, 1, 17, -12, 49, 28, 49, -54, -56, 14, -35, -35, -24, 44, -5, -36, -42, 22, -51, -38, -41, -49, 42, 39, 29, 15, -42, -34, 53, 10, -49, -61, -33, 6, -11, -50, -28, 33, -30, 36, 36, -43, 5, 8, 53, 48, 69, -13, -4, -50, -51, 39, -65, 9, -10, 10, -14, -48, -25, -2, -49, -20, -29, 20, -42, 18, 39, -72, -37, 51, 47, -5, -68, -63, -22, -3, -11, -19, 32, 54, -49, -3, -6, -16, -1, -11, -31, 20, 17, -14, 12, -6, -67, -18, 16, -46, 13, 20, -45, 33, 43, 42, -1, -34, 64, 34, 52, -1, 30, 62, -28, 61, 25, -4, -10, 9, -34, 18, 48, -24, 40, -6, 33, -36, 29, 24, 19, -15, -12, -37, -47, 55, -58, 48, -27, -42, 0, 31, -35, -49, 43, -53, -49, -8, 60, -43, 48, -14, -65, 67, -20, -9, -5, 59, -28, 2, 48, 35, -24, 52, 50, -33, 2, 45, 41, -28, 9, 9, -31, -43, -8, -7, 8, -47, -36, -30, 50, -43, -39, -20, -8, -4, -32, 11, 26, -36, -15, 56, -27, -33, -60, 25, -5, 26, 10, -58, -21, 50, 34, 4, -31, 34, 47, 55, 37, 57, 29, -30, -45, -28, 5, -55, -6, 1, 33, -52, -35, -43, 2, 71, 30, 15, 59, 63, 41, 13, -15, 58, -61, 24, 19, 20, 47, -7, -54, -26, -25, -51, 56, -20, 20, -50, -31, 21, 15, -36, 8, -31, 57, 40, 53, 9, -32, 27, 22, 57, -27, -65, -58, -37, 56, -22, 9, -15, -29, 35, 10, -55, 47, -24, -35, 47, 46, -81, -40, -71, -28, -37, 44, 41, 39, 32, 60, 17, -58, 4, 31, 23, 1, 37, 23, 33, -24, 58, 8, 25, 32, -56, -37, -34, -67, -15, 39, 40, -15, 3, 47, 19, 53, 57, -7, 51, -56, -44, -5, 67, 3, 4, -3, -13, 9, -6, 24, 48, -46, -43, 35, -53, 63, 64, 27, -45, -67, 50, 18, -26, 2, 29, 54, -6, 28, -67, 10, -11, -30, -5, -52, 57, -46, -36, -46, 11, 43, 50, 27, 52, 17, -10, 43, 9, 54, 22, -6, -20, -62, -6, -5, -24, -42, -9, -35, -47, 16, -66, -35, 56, -21, -48, -34, 17, 60, 41, -68, -71, 22, -19, 35, 59, 21, 39, -34, -55, 39, 46, 34, 43, -17, -38, 59, 35, -31, -44, -7, -38, 47, -24, -48, -70, -10, -1, 44, 19, -25, 43, -6, -12, -40, 16, 27, 46, 28, 6, 27, -49, -59, 5, -73, -26, -16, 20, 28, -6, -16, -36, 49, 53, -44, -16, -43, 27, -57, -7, 78, -23, -66, -51, 64, -23, 27, 25, -43, 26, 30, -53, 7, -16, -49, -7, 63, -14, 18, 3, 56, 60, -67, -47, 53, 66, -58, 34, -25, -3, 23, 46, 43, -24, -53, -30, 20, -61, -29, 1, 46, -6, 18, 0, -3, 42, -52, -48, -68, 45, 46, -33, -16, -45, 3, -15, -27, -9, 16, 65, 59, -39, -32, 51, -39, 27, -63, 34, 2, 0, -83, -16, 34, -49, -32, 20, 26, -26, 67, -36, 49, -49, -4, -12, 28, -58, -57, -10, 34, 24, -13, 13, 10, 14, 22, 16, 4, -32, 0, 60, 28, -42, 53, 46, -8, 60, -32, 4, -56, -55, -26, -4, -4, 59, 64, 21, -43, 28, 0, -53, -23, 30, 53, 41, -18, 67, 0, 42, 21, -40, -70, -12, 65, 47, 4, 45, 51, 22, 39, 39, 35, -57, -54, 48, 47, 61, -53, 55, 62, 19, 62, 5, 35, 53, -17, -7, -14, 14, 34, -29, -9, 12, 25, 34, 12, 34, 52, 52, 45, 9, 62, -36, 39, 12, -61, -50, 21, -33, 2, -48, -63, -22, -62, 9, 35, 15, -37, -58, 6, 52, 36, 31, -36, -21, 60, 5, -17, -73, -52, -45, -10, -55, -44, -38, -36, 16, 13, -45, 22, -36, -20, -48, -64, 24, 23, 17, 23, 19, 63, -76, 3, 47, -27, 66, -4, -6, -23, -31, -1, -22, -44, -73, -51, -7, -56, 50, -40, 31, -52, -37, 54, -55, 49, -33, -48, -51, 12, 40, -21, -12, -45, -11, -21, 28, 31, 44, 54, -37, 41, 10, -25, 40, -22, -37, -34, 5, 52, 62, 26, -2, -36, -39, 46, 45, 58, 52, -17, -19, 24, -51, 1, 10, 11, -23, -7, 10, 22, 25, -19, -3, -38, -36, -29, 40, 22, 34, 21, 49, -24, -23, 20, 58, 17, 39, 76, -53, 53, -48, -4, -45, -5, -8, -54, 49, 44, -38, 50, 69, -14, -21, -21, 0, -6, 54, -35, -12, -38, 57, -23, -23, 2, 50, 70, -62, 32, -30, -63, 20, -17, -10, -25, 44, -47, 10, -29, 38, 19, -41, -30, -26, -66, -55, -7, -19, 28, 38, 63, 23, -7, 32, 8, -59, 8, -72, 32, -48, 53, 41, -47, -47, 31, -16, 69, 35, -58, 31, -12, -13, -51, -24, 58, -22, -57, -60, -41, -52, 8, 9, 65, 29, -5, 49, 31, 17, 46, 29, 48, 33, 51, 9, 69, -57, 44, 50, 34, 12, 26, -14, 27, 37, -6, -22, 59, -55, -8, 12, 58, -13, 69, 10, 22, -64, 56, 1, -28, 75, -59, 45, -61, 54, -13, 32, -31, 28, 31, 50, 40, -29, -1, 31, -21, 8, -68, -13, 37, 0, 7, -42, -61, -50, -20, 37, -19, -11, 4, 10, -30, 54, 23, 24, -4, 18, 12, 27, 6, 16, -70, -13, -39, -4, -39, -27, 52, 35, 42, -61, -52, 56, -15, 61, 4, 30, 6, 39, 16, -76, 13, 35, 6, -28, 35, 32, 56, 19, 9, 53, -24, -46, -44, 38, -38, -59, -43, 32, -28, 40, 28, -45, -22, -61, 4, 2, -44, -5, -12, 34, 45, 13, 11, -84, -3, -36, 55, -9, -30, -48, -35, 5, -64, 27, 52, 38, -62, 65, 33, -8, 65, 74, 45, -41, -3, 62, -54, 10, -48, 28, -48, 53, -40, -5, 34, -39, -46, 42, 49, 51, 59, -51, 44, -73, -54, -46, 33, 13, 0, 22, 10, 10, -22, 36, -22, 12, -43, 23, -35, 10, 44, 52, -39, -28, 37, -48, 17, -58, -50, -2, -49, -7, -59, -38, 13, -29, 3, 63, 47, -31, 25, 43, 19, -53, 34, -3, -23, -30, -46, 15, 42, 38, 57, 52, 62, 49, -55, -11, -68, 3, -52, -23, -54, 45, -43, -57, -33, -4, -2, 49, 38, 20, -38, 48, -11, 18, -15, 6, 34, -1, -21, 59, 4, 58, 12, -44, 15, 2, -30, 48, 47, -3, -43, -36, 55, 1, 4, 8, -48, -44, -64, -3, -76, 34, 15, 10, 3, -16, -59, -30, -76, 56, -38, -28, 10, 16, 17, 59, 0, -53, -60, -25, -19, 61, -16, -61, 17, -35, -51, 63, -41, 5, -49, 36, 58, 64, -9, -23, -2, 28, 35, -30, -18, 10, 33, 11, -2, -56, -17, -34, 42, 59, 13, -60, 52, -58, -65, 36, 38, 22, -45, 28, 1, -40, 12, 6, -3, -3, -58, 28, -52, 38, 20, -49, -26, -8, -57, -20, 9, 3, 26, -43, -6, -1, -23, -9, -11, 54, 29, -32, -22, -32, -55, -15, 57, -41, -26, -6, -49, -69, -1, -2, -19, -55, 43, 27, -15, -35, -52, -31, 51, -41, -49, 34, -35, -42, -68, 37, -23, -71}

#define CONV2D_5_KERNEL_0_SHIFT (8)

#define CONV2D_5_BIAS_0 {-15, 14, 10, 8, -26, -1, 16, 8, 3, -6, 26, 5, -6, 10, 1, -12, -16, 14, 73, 1, -26, -4, 10, -19, -8, -7, 7, -15, 9, 10, 9, -6, 35, 12, 15, -22}

#define CONV2D_5_BIAS_0_SHIFT (11)


#define CONV2D_6_KERNEL_0 {-72, 35, 36, 11, -17, 41, -23, -27, 4, 68, 43, 62, 65, 48, 86, -19, -35, 6, -9, -12, -32, 15, -7, 31, 14, -31, 64, 26, 27, 31, -15, -26, 30, -25, -36, -9, -14, 28, 33, 32, -60, -29, 1, -47, -24, 50, 27, -10, 30, 41, 84, -41, 28, -48, -47, -32, 37, -27, 8, 63, 78, -5, -10, -19, -11, 8, 24, 55, -10, 38, 59, -35, -40, 34, -6, 23, 34, -8, -52, 6, 28, 8, -25, -64, 59, -36, -20, 14, -38, -32, 19, 4, -32, -47, -55, 25, 48, -15, 71, 16, -3, -1, 42, 50, -53, -22, -22, 14, -56, -7, -2, 16, 4, 5, -49, 40, 14, 46, -36, 37, 35, 30, 25, -39, -34, 55, -3, -25, 47, -27, -55, -10, 23, -37, -29, 7, 57, -21, -19, 26, 29, 10, 17, 72, -28, -27, -17, -25, -5, 35, 15, 36, 55, 15, 33, 61, -45, -13, 69, 22, -4, 10, -62, -46, -7, 10, 30, -45, 59, 30, -23, -40, 18, 23, 78, 36, 29, -14, 29, 51, -54, 3, 45, -19, 19, 5, -50, -10, 19, -52, -52, -56, -14, 3, -8, -59, -33, 52, -15, -50, 10, -83, -8, -32, -40, 22, 7, 33, -74, -16, -5, -45, -59, 32, -56, -33, -22, 36, -37, 55, -63, 42, 67, 31, -10, 29, 21, -9, -16, -21, 28, -14, 9, 54, 43, 26, 39, -22, 50, 5, -34, -11, 2, -50, 4, -40, 7, -33, -28, 57, 7, 3, -37, 36, -67, 43, -54, -44, 20, 13, 47, 48, -11, -11, -7, 44, 91, -19, -8, 2, 46, -78, 6, -7, 5, 23, 74, 46, -46, -12, -56, -26, 22, 34, 38, -33, 23, 1, 23, -54, -24, 44, -82, 23, -36, 6, 46, 30, -12, -21, -44, 44, 12, -38, -27, 45, -10, -49, 6, 5, 53, -38, -7, 18, 12, -24, -40, -22, -9, -67, -18, -57, -31, 44, 40, -46, -59, 11, 46, 19, 2, 46, -22, -37, 15, -21, -41, -41, -33, -69, -18, 59, -34, 1, 60, 2, -21, 63, 60, 33, -11, -21, -8, -50, -72, 63, 18, -54, -4, -1, 7, -52, -7, 48, 21, 35, -50, 18, -70, -17, 40, 38, -25, -29, -37, 3, 1, 46, -54, 15, -11, 30, -45, 52, -53, -18, -16, 12, 17, -47, 19, -26, 36, -33, 52, 19, -1, 16, 22, 44, -36, -6, -4, 10, -12, -52, -27, -4, -29, 32, 64, 22, 3, 67, -47, 59, 43, 52, 19, 19, -51, 10, -5, -55, 24, -73, -30, 20, 64, -48, 38, -6, 3, 65, 31, -31, -51, 43, -7, 32, -38, -27, -31, 14, -64, -66, 15, -68, -69, -41, -58, -43, -12, 32, -4, -4, 7, 14, -52, -4, 8, -19, 10, -40, 8, 1, 13, 27, -28, -21, -12, -6, -36, 9, -51, -44, -46, -13, -66, -59, -61, -18, 46, -33, 27, 28, -28, -31, -67, -56, 2, 82, 17, -58, -38, 39, -25, -54, -19, -1, 8, 33, -37, -39, -10, -52, 4, 32, -17, 20, -63, 9, -50, -19, -19, -63, -54, -59, -22, -63, 23, 36, -46, 26, -47, 53, 0, 5, -19, 41, -69, 23, 32, -71, 17, -36, 62, -2, 17, -53, 42, 68, -22, 40, -13, -39, 45, -60, -12, 26, -25, 22, 11, -40, -37, 37, 30, -27, 61, -42, -26, 19, 18, 35, 57, -37, 12, -55, 2, 18, 41, -3, 1, -3, 14, 38, -66, 23, -34, 1, -69, -27, -68, -53, 31, -15, 48, 8, -26, -22, 18, -41, 34, -41, 24, -24, 23, 6, -20, -48, 1, 1, -11, 31, 20, -88, 16, -13, 47, 40, 7, -35, -43, -51, -17, 23, -5, 38, -32, -38, 51, 30, 16, -50, -8, -42, -41, 30, 16, -13, 18, -25, 0, -21, -34, -45, -1, -8, -63, -17, -54, -44, -22, 45, 61, -19, -32, 11, 16, -11, 49, 25, -29, -56, 58, -54, -38, -1, -3, -8, 33, -2, -46, -51, 76, -71, 0, 30, 88, 35, 62, 4, 6, 12, 43, 12, 3, -31, 36, 10, -14, 56, 42, -34, 2, 11, 3, 65, -33, -4, 26, -31, -6, -26, -32, -7, 53, 9, -33, 2, 62, 8, 13, 63, 9, 28, 15, -43, 42, -30, -38, 35, -43, 51, -20, -30, 32, 5, -20, 46, -18, -33, 72, 34, -40, 2, -5, -49, -22, -16, -31, -35, -9, -21, 9, 4, -11, 34, -42, 9, -23, -38, 14, -24, -32, 13, 70, -18, 32, -41, 43, -16, 19, 54, 14, 43, -30, 39, -27, 10, -5, -6, -28, -63, 41, -85, -10, 46, -20, -6, -14, 27, 85, -51, 8, 24, 18, 28, -1, 5, -46, 20, 18, -13, 48, 39, 4, -51, 7, -35, 8, -8, -48, -22, -33, 17, 19, 6, -43, -58, -63, -80, -28, -16, -45, -22, -88, 51, 81, 5, -53, -12, -46, -37, -49, 2, 21, -2, 4, 27, 21, 15, -14, 45, -96, -24, 5, 60, -89, -2, 1, -39, -23, -49, -21, 38, -26, -26, 11, 34, 7, -14, -25, 35, 20, 26, -23, 15, -13, -49, 43, -14, -42, -29, 38, -22, -69, 1, 14, 23, -68, 37, -10, 27, 15, 13, 34, 44, 21, -58, 19, -13, -2, -31, -51, -48, -40, -37, -28, -1, 17, 12, -73, 44, -20, 61, -40, -6, -12, -43, -40, -50, 61, 24, 8, -45, -43, 5, -3, 28, -59, 87, 3, 2, 35, -75, -25, 32, -71, -58, -38, -24, -54, 17, -62, -37, -3, 2, 36, 2, 3, 41, -21, -49, -13, -40, -31, 12, 23, 7, -5, 33, -44, -25, -2, 36, -45, 27, 0, -38, 59, -10, 6, 26, -64, 35, 40, 22, 19, -47, -38, 5, 33, -43, -34, 41, -17, 41, -18, -61, 13, -62, 28, -4, 35, -22, 23, -13, -25, 40, -30, -45, 31, 37, -33, 17, -1, -32, 49, -30, -29, 27, 31, 46, 3, 54, 23, -33, -21, 24, -17, 15, 3, 3, 26, -14, 20, -46, 19, -18, -31, 41, 17, -7, 44, 40, 38, 21, -38, 27, -1, -11, -14, 10, 56, -17, -66, 18, -30, 36, 42, 71, 63, 19, 3, 5, 13, 16, 42, 22, 83, 17, -28, 28, 59, 2, 59, 40, 58, 46, 81, -1, 33, 41, -70, -54, 43, -10, -45, -72, 44, 54, -60, 47, -6, -39, 61, -60, 55, -73, -57, 40, 29, -26, 14, -29, -2, 40, -21, -41, 14, 80, 71, -5, -11, -2, -11, -34, -7, 49, 12, 80, 43, 32, 46, -13, -45, 28, -23, 1, -31, -2, -21, -2, -35, 50, 30, -46, 18, -28, 11, -25, 58, -10, 40, -2, 39, 73, -46, 3, -45, 46, -67, 44, 14, -39, -68, -12, -11, 56, 52, -76, 55, -35, 24, 17, 59, 45, -70, -18, -51, -29, 10, 29, 46, 56, 49, 70, -2, -13, -55, -57, -34, -29, -10, 20, -21, -54, -70, 45, 17, -38, -50, 42, -39, -24, 38, -15, 52, -62, 22, 2, 24, -14, -44, 17, -63, -2, -12, -25, 29, 23, 48, 14, -31, 7, -6, 14, 15, 19, 72, -35, -7, 44, 12, -25, -67, -19, -55, 8, -24, -15, -32, 40, -37, 0, 53, -42, 14, -25, -21, 28, -32, 59, 12, 49, -58, -51, -73, 36, -61, -54, -35, -56, 8, 23, -68, 13, -54, -50, -25, -33, 59, -49, -12, 73, -31, -38, 40, 13, 7, -57, -39, -58, -35, 30, -11, 62, -17, 12, -39, -11, 47, 6, -35, 44, 15, -24, 46, -56, 28, -6, 14, -61, 32, 67, -90, 15, -44, 4, -69, 53, -56, -23, 27, -13, -34, 41, 61, 27, -2, -68, -5, 13, 40, 14, -57, -3, -7, -52, -4, 41, -42, -44, -23, 4, -26, -30, 39, 29, -15, -5, 6, 23, 51, -8, 14, -32, -14, 26, -42, -20, -65, -1, 3, 2, -49, -37, -28, 62, -12, -67, -19, -34, -95, 7, -40, 9, 30, -33, 24, 18, -9, 31, -22, 40, 19, 22, -27, -8, 26, 11, -35, -59, -87, 30, 51, -80, 1, -3, 4, -39, 42, 5, 9, 4, -39, -73, 45, -36, -58, -43, -4, 9, -29, 20, 11, 24, -66, 10, -3, 4, 16, -55, 2, 14, 17, -16, 23, -36, -39, -16, 42, -9, -25, -68, -27, 29, 64, 70, -63, -25, 5, -73, -5, -74, -7, -12, 57, -20, 22, 52, -81, -47, 50, 34, 79, 5, -18, 23, -6, 35, -62, -31, -18, 27, -72, -43, -34, 57, -53, -61, -25, 24, -22, -40, -41, 53, 12, 16, -23, 36, 27, 30, -5, 12, -72, -1, 9, -9, -1, 32, 56, -68, -52, -44, 44, -1, 29, -45, 38, 3, -38, -48, 78, -43, -57, 29, -53, -10, 5, 4, 6, 19, -19, -62, 7, 66, 7, -34, 61, -39, 32, 29, 21, 9, -4, 61, 6, -54, -8, -47, -21, 19, 47, -57, 9, -83, -53, 46, 39, -64, -3, -8, 53, 17, 8, 64, 3, 2, 17, -67, 19, 35, -37, -27, -33, 40, -13, 12, -38, -3, 23, 64, 34, -62, -15, -26, 56, 4, -69, -87, 27, 12, -35, -47, -16, -17, -23, 25, 28, -26, 54, -7, -28, 17, -39, 23, -10, -61, 47, -33, -29, -44, 32, 35, 20, -5, 12, -22, -44, -44, 33, -6, -3, -15, -1, -44, 26, -16, 6, 54, -44, 26, -2, -34, -12, -53, 11, 14, -75, -24, 53, -38, 28, -54, -49, 1, 43, 5, 68, -17, 43, -27, 45, -32, 32, -8, -47, -25, -25, 16, 26, 37, -23, 13, -28, 19, -32, 25, 10, 37, 45, 51, -33, -24, -33, 5, 31, -9, -60, -18, 30, 49, 53, -21, 5, -28, -56, 55, -33, -18, 24, 19, -11, -35, -61, 7, -45, -50, 15, -24, 36, -4, 5, -49, 14, 9, -38, -33, 50, 62, -21, 31, -75, -1, 48, -6, -47, -6, 33, -29, 72, -60, 14, 5, 35, -27, 34, 31, -31, -24, 39, 50, 43, -69, 37, 59, -8, -3, -42, -26, 53, -40, -25, 3, 12, 4, 34, 28, -51, 47, 14, -46, -7, -29, -25, 76, -56, -22, 5, -34, 37, -64, -59, -55, 24, -18, -25, -18, 25, -12, 28, -17, -37, -43, 34, -75, -46, -11, -6, -15, 0, 18, -87, 56, 14, -53, -35, -21, 45, -21, 18, 71, -51, -47, -48, -5, 26, -28, 48, 20, -6, 33, -19, -19, -2, -20, -8, -58, 40, -17, 35, -62, -6, -47, -27, -56, -21, 71, 6, 53, -10, -34, -22, -28, -40, -45, -40, -31, -63, -21, 45, 64, 6, 31, 23, -7, 6, -21, -48, 7, 28, -11, -25, -29, 20, 53, -38, 60, 51, -58, -33, -47, -24, 36, 2, 35, -21, -54, 15, -70, 27, 39, 11, 45, -76, 48, -18, 43, -5, -23, -21, -62, -38, 61, 30, 34, -60, -25, 12, -40, -75, -11, 20, 34, 50, -57, -54, -25, -42, -30, -34, -40, 8, -44, -34, 42, 43, -31, -34, 6, -21, 26, -26, -78, 25, 61, -20, -70, -80, 12, -52, -20, 45, -40, 26, -22, 17, 18, -38, -17, -18, -4, -62, -42, 37, 44, -29, 50, -48, -37, 38, -66, 25, -34, 31, -15, -7, 65, -37, -19, 47, 50, 3, -35, -47, 22, 7, 12, -34, -39, -18, -37, -58, -43, 32, 31, -7, 16, 39, -17, 63, -52, -52, -66, -59, -30, 0, -83, -28, 0, -43, -33, -15, -7, -56, 32, -23, 41, -20, -70, 56, -23, 44, 16, -27, -22, 38, -40, -76, -17, -8, -19, -9, 11, 25, 19, 0, 29, -20, -44, -49, 37, 6, 18, 30, -66, -56, -4, -62, 61, 13, -3, 4, -72, -39, -61, -9, -65, 25, 52, -48, 9, -39, 38, 34, 9, 67, -41, 54, -5, -42, -13, 16, 41, 45, 11, 3, 28, 26, -65, -40, 16, 28, 14, 48, -79, 75, -4, 58, 25, 58, 12, 39, -32, -26, 28, 33, 21, 43, 30, -56, -7, 1, -43, 38, 1, 46, 46, 60, 39, 25, 12, 56, -63, -10, -6, 20, -8, 22, 52, 51, 10, -8, -15, 18, -45, -38, 78, -10, 9, -66, -9, -46, -50, -12, -17, -34, 34, -54, -3, -8, -41, -4, 8, -42, -40, -38, 67, -7, -3, -68, -4, 36, 54, -34, -9, 44, 19, 63, 14, 50, 36, 7, -16, 48, 4, -3, 26, -37, 10, -32, 43, -45, 40, -1, 25, 40, 33, -21, -59, -37, -7, 33, 23, -13, -60, 40, -7, 22, 36, -30, 30, 34, 5, 25, -60, 44, 27, -32, -22, -21, 22, 20, -14, 72, 75, 54, 14, -32, 19, 41, 35, 54, 51, -35, -13, -22, 8, -49, 55, 69, -74, 18, 21, -39, 43, -28, -32, 21, -76, 40, -44, -19, 10, -12, 44, -34, -9, 32, -38, 44, 23, 65, 3, -25, -4, -52, -13, -10, 62, 38, 49, 15, 28, -38, -38, 54, -16, -46, -23, -36, -22, -27, -61, 19, -46, 30, 3, -37, 20, -41, 0, -40, 9, 53, -60, 7, -31, -40, -6, 4, -52, -39, -66, -54, 48, -5, 36, -28, -22, -65, 33, -40, -74, -53, -34, 0, 33, 11, -7, -38, -49, -44, 36, -15, -35, 26, -40, -79, 42, 5, -41, 82, 14, 69, -55, -37, -30, 69, -8, -41, 41, -27, -29, -5, 49, -9, 14, -31, -41, 46, 36, 18, 17, 31, 39, -55, 38, -27, 56, 37, 17, -45, -25, 30, 16, 23, -42, 27, -11, 89, -26, -91, -34, -41, 38, 13, -41, -18, 1, -82, -35, 4, -19, -2, 40, 43, -24, 26, 67, 39, -13, -57, -42, 11, -31, -53, 18, -42, 18, -67, -43, 31, -10, -34, -2, -10, -11, 2, -46, -13, 31, 73, -22, -32, 62, 20, 30, 37, 40, -20, 44, 1, 2, -26, -66, -12, -40, 38, 58, -9, -3, 45, 8, -35, -29, 30, 33, -5, 17, 40, 59, -81, -41, 31, -31, 31, 49, -25, -30, -44, 32, -44, 35, -89, 39, 60, -33, -79, -25, -28, -26, 24, -14, -54, 25, -39, -35, -19, 20, -42, -62, -24, 6, -59, -85, -14, 38, -36, 27, 5, 12, -79, 53, -40, 4, -6, 39, -63, 32, -13, -62, 34, -33, -26, 18, -16, -53, -4, -42, -67, 5, 25, 36, -42, -1, -25, -60, -31, 11, -29, 0, -5, 0, 25, 2, 15, 10, 57, -11, 70, 3, -30, -34, -11, 51, 3, 74, -41, 50, 58, 59, 61, -16, 20, -13, 43, -25, -23, 16, 57, -28, 23, 37, 16, 53, -7, 1, -34, -23, -55, -4, -15, -8, -30, -29, -31, -81, -85, -9, -32, 48, -16, -21, -55, -6, 32, -86, 11, 50, -43, 49, -30, 9, -47, 15, 58, -50, -18, -118, 0, -19, -41, -28, -32, 69, 10, -37, -7, 51, -31, 15, 11, -29, 21, 43, -24, 19, -27, 26, 44, -61, -27, -41, 23, 5, -32, -32, -58, -17, -33, -33, 52, -21, 11, -92, -40, 26, -26, -9, -40, -22, -40, 25, -9, 69, -17, -38, 44, -41, -40, -4, 11, -10, 54, -18, 45, -4, -30, -26, -4, 37, 48, -36, -44, -13, 38, -42, -40, 51, 60, 40, 1, -18, -1, -50, -63, -27, -72, 1, 36, -35, -34, 51, -11, 3, 23, -18, -8, -24, -22, 50, -20, 1, 21, -70, -69, -27, -31, 23, -12, -10, 64, -10, -41, -20, -56, 4, 30, -48, -53, -10, -68, -45, -43, 33, -11, -30, -80, 39, 57, 39, 17, -4, 31, 55, 17, 28, -29, -51, -22, -46, -51, -61, 9, 51, -31, 4, 31, 42, -34, 49, -22, 25, 8, 49, 53, -32, -34, 1, -39, 8, 6, -38, -56, 32, -25, 15, -2, 42, -68, 1, 0, -45, 48, -31, 30, -9, -2, -6, -54, -56, -52, -21, 4, -51, -77, -71, -49, -35, -16, -60, -52, 36, 16, 68, -49, -41, -7, 29, -6, -57, -47, 19, 21, -43, -10, -23, 5, 38, 26, -45, -21, 28, -45, -12, 1, -2, -52, -58, 59, -22, -50, 56, 42, -44, -71, 10, -18, -43, 27, -51, 11, -47, 25, 19, 5, 51, 62, 19, 4, -9, 41, -19, -16, -57, 35, 5, 35, -14, 30, -64, 49, 38, -20, 0, 5, 9, -3, -14, 46, -33, -25, 40, -38, 40, 29, -42, -56, 0, -61, 56, -19, 4, -71, 68, 36, 44, -20, -52, -46, -34, 45, -40, 12, 14, -64, -71, 44, -13, -67, 5, 5, 3, -67, 46, -23, 13, 44, 3, -34, 25, -5, -51, 41, 29, -14, 50, 24, -73, 26, -63, 51, -39, -8, 17, 52, 19, 34, 30, -61, -39, 38, -12, -41, -66, -56, -15, 7, -65, -60, 32, 2, -20, -17, -7, -87, 39, -51, -69, -42, 45, 40, -32, 2, 9, -67, -52, -30, -19, -13, 15, -23, -36, 19, 15, 33, -2, -53, -44, -69, -55, -61, -45, -32, -41, 43, 39, 40, -2, 6, 10, -26, -35, -45, -27, 3, 33, -32, 52, 49, 49, -46, 24, 41, -40, -41, -19, 59, -44, 9, -54, -14, 42, 61, -50, 34, -77, -32, -41, -25, -6, -40, 34, 57, -39, -37, -13, -8, -27, 17, 9, -84, 36, 24, -33, -31, -19, 31, -7, -35, -18, 43, -2, 41, -20, -41, 12, -2, -2, 24, 28, -4, 5, 46, -4, 33, -73, 8, -2, -18, 7, -9, 19, 7, -63, -42, 28, 18, 9, 24, -18, -55, -53, 1, -62, -46, 19, -8, -30, -74, 14, -1, -26, -13, -34, -11, -2, 1, 35, -9, 2, 53, -78, 13, 32, 1, 22, 3, 6, 25, 22, -6, -22, -65, -41, -45, -46, -71, 1, -10, 48, 3, -10, -68, -45, 28, 23, 5, 11, -15, -14, 15, 56, 41, 33, -34, 43, 10, 5, -28, 39, 7, 7, 44, 30, -21, -6, 27, 3, -58, 67, 13, 5, 1, 46, -64, -2, 36, -56, -73, 18, -42, -49, -38, -24, -19, -53, -54, 36, -46, 44, -70, -7, -19, -20, -3, -37, 28, -10, 7, -33, -34, -1, 31, -8, -55, 16, -62, 12, -54, 38, -22, -63, -12, -65, -21, 41, -38, 5, 33, -11, 28, 11, -25, 28, -55, -20, -33, -2, -12, -89, -17, 55, -24, -49, -8, 54, -59, 4, 30, 40, -39, -44, -40, -50, 37, -47, 24, 30, -87, -52, -13, 11, -3, -61, 31, -57, -7, -20, 50, -27, -49, 9, -12, -28, -35, 25, 9, 55, 5, -45, 49, 28, 53, -28, -31, -27, -60, 37, -54, -25, -9, -11, -47, -9, -74, -33, -6, 3, 31, 4, 12, -6, -41, -60, -14, -49, 14, -4, 43, 51, -35, -79, 1, -41, 29, 46, 4, 55, -23, -10, -2, -27, -51, 11, -59, 5, -18, 44, -14, -2, -1, -39, -58, 17, 3, -53, -8, -21, -12, 11, -40, -64, -36, 46, 22, -33, -14, 25, -10, 11, 21, 34, 67, -18, -3, 38, 27, 31, -23, -68, 42, -5, -52, 29, -49, -63, -68, -3, 13, -30, -16, -40, 31, -13, -54, -46, -11, -64, 37, -8, 11, 43, 4, 3, 11, 57, -48, -42, 36, -13, 26, -13, -12, 30, -79, -31, -6, 49, 37, 11, 33, -19, -61, -18, 22, 38, 45, -11, -1, -12, 4, -51, 24, 31, 17, -72, 10, -54, 55, -43, 8, 39, 30, 19, 64, 23, -29, 0, -32, -60, -29, 20, 13, 60, -15, 3, 49, -62, -43, -7, 37, 8, -43, 4, 45, -10, 26, -4, -11, -57, -52, 47, 27, 66, 10, -36, 25, 22, 36, -28, 69, 25, 43, -38, -12, 51, 13, -9, 47, 35, 21, 66, -6, -13, -29, 25, -40, -16, -11, -71, 52, -22, -1, 13, 15, -59, -69, -59, -45, 3, 34, 1, 31, 43, -76, -59, -75, -9, 13, -36, -4, -18, 11, 16, 19, 55, 4, 49, -30, -36, 58, 33, -34, 24, 21, 35, -15, 45, -36, 66, 33, 6, -34, -48, 20, -33, -18, -52, -14, 17, -19, 50, -15, 42, 16, 29, 60, -25, -19, -30, -27, 27, 0, 8, -60, -25, 55, 50, -29, 38, -26, 14, -52, 49, -1, 32, 13, -39, -52, -52, 43, 3, -70, -48, -49, -71, -15, -7, -50, -58, -19, 13, -75, -39, 18, 11, 18, 35, -41, -41, -14, -38, 15, 49, 51, -15, -66, -55, 6, -28, -49, -49, -49, -12, 44, -57, -20, -50, 32, -28, 42, 41, -22, -42, -61, -10, 7, -22, 53, -41, 13, -16, -47, 31, 6, 43, -6, -36, -29, -28, 50, -27, -29, 18, 67, -35, -12, -22, 51, 67, 36, -54, 32, 35, 33, 47, -18, 18, -68, 23, 10, 82, -47, 73, 13, -39, 55, -68, 3, 1, -49, 21, 37, 14, 81, 40, 5, -49, -22, -39, 2, -10, -72, 40, 19, -40, 25, -46, 12, 10, -5, 23, -35, 1, -70, -11, 15, -5, -25, -44, 15, 39, 25, 16, -69, -10, -49, 57, 24, 18, 63, 31, 30, -52, -25, -49, -24, 27, 0, 61, -23, 36, 64, -54, -57, -19, -43, -28, -13, -10, -26, 12, -61, -6, -29, 81, -11, 22, 30, 2, -57, -12, 42, 29, -11, 42, 8, -15, -44, -6, -44, -18, 44, -46, 10, -39, 42, 34, 56, -4, -46, 16, 65, 41, -11, -18, -50, 25, 37, 8, 20, 4, -48, 42, 16, 10, -27, 47, 39, 63, -40, -29, -38, 30, 17, 52, 41, -66, -2, -15, 31, -8, 10, 32, 10, -11, -48, -50, 4, 30, 3, 50, -18, 36, 21, -14, 69, -31, -29, 49, 29, -16, 30, -64, 42, -2, 22, 26, 27, 7, 13, 30, -79, -20, -49, 43, 53, -70, 45, 61, 8, -47, 24, -2, 47, -56, -41, -35, 0, -41, -38, 36, -31, -10, -48, -41, 39, -28, 64, 23, -43, 28, -34, -12, -11, -27, -33, 39, 16, -44, 23, -54, -16, 33, 25, 0, 36, -35, 48, -36, -75, 35, 47, 29, -46, 31, -16, -33, -34, -43, 6, -47, -13, 39, 36, -60, 21, -19, 34, 4, -23, -44, 44, -9, -14, -9, 39, 21, -15, -32, -8, 34, 25, -32, 14, -1, -73, 27, 38, -47, -1, 55, -24, 31, -35, 15, -35, -60, 62, 77, -59, -57, 42, -45, -55, 44, 28, 10, -29, -64, -31, -3, -94, 52, 51, 2, -8, -58, 33, 45, 13, 6, 37, -48, -11, 44, -54, -42, -27, 43, -47, -25, 59, -46, -35, 14, 14, -6, 11, 17, 16, -18, 11, -32, 30, -35, -11, -38, -45, -23, -43, -31, 28, 39, 35, -31, 11, -5, 33, -33, 50, 45, -23, 30, 61, 46, 57, 22, -9, 64, 61, 7, 38, 36, 21, -28, -21, -36, -25, 54, 40, 34, 50, -44, 55, 13, -5, 6, -27, 47, 4, 41, 30, -10, -55, -5, -39, -34, -50, 0, 8, -42, 53, 15, -53, -46, -64, 23, 56, 46, -9, 2, -55, -30, -17, -54, -85, -37, -16, -20, -85, 37, 12, -71, -70, -8, 26, 15, 48, 24, 56, -31, -38, 80, 35, -20, 4, 6, -56, 8, 38, -38, -29, -50, -2, 57, -11, 38, 32, 12, -32, -53, -31, -65, -49, 13, -55, 33, 73, -55, -8, 5, -17, 65, 30, 28, 72, 40, -52, 18, 47, 59, 38, 43, 62, -12, 81, 33, -14, 29, -21, 28, -47, -24, -42, 51, 47, 25, 33, -8, -61, -18, -26, -16, 40, -60, 31, 26, -12, -21, -8, 63, 61, 7, 15, -50, -53, 43, -20, 52, 9, -16, 55, 79}

#define CONV2D_6_KERNEL_0_SHIFT (9)

#define CONV2D_6_BIAS_0 {79, 39, -18, -2, 4, 30, 12, -7, 68, 15, 38, -47}

#define CONV2D_6_BIAS_0_SHIFT (13)


